FANN_FLO_2.1
num_layers=3
learning_rate=0.700000
connection_rate=1.000000
network_type=0
learning_momentum=0.000000
training_algorithm=2
train_error_function=1
train_stop_function=0
cascade_output_change_fraction=0.010000
quickprop_decay=-0.000100
quickprop_mu=1.750000
rprop_increase_factor=1.200000
rprop_decrease_factor=0.500000
rprop_delta_min=0.000000
rprop_delta_max=50.000000
rprop_delta_zero=0.100000
cascade_output_stagnation_epochs=12
cascade_candidate_change_fraction=0.010000
cascade_candidate_stagnation_epochs=12
cascade_max_out_epochs=150
cascade_min_out_epochs=50
cascade_max_cand_epochs=150
cascade_min_cand_epochs=50
cascade_num_candidate_groups=2
bit_fail_limit=3.49999994039535522461e-01
cascade_candidate_limit=1.00000000000000000000e+03
cascade_weight_multiplier=4.00000005960464477539e-01
cascade_activation_functions_count=10
cascade_activation_functions=3 5 7 8 10 11 14 15 16 17 
cascade_activation_steepnesses_count=4
cascade_activation_steepnesses=2.50000000000000000000e-01 5.00000000000000000000e-01 7.50000000000000000000e-01 1.00000000000000000000e+00 
layer_sizes=97 161 97 
scale_included=0
neurons (num_inputs, activation_function, activation_steepness)=(0, 0, 0.00000000000000000000e+00) (0, 0, 0.00000000000000000000e+00) (0, 0, 0.00000000000000000000e+00) (0, 0, 0.00000000000000000000e+00) (0, 0, 0.00000000000000000000e+00) (0, 0, 0.00000000000000000000e+00) (0, 0, 0.00000000000000000000e+00) (0, 0, 0.00000000000000000000e+00) (0, 0, 0.00000000000000000000e+00) (0, 0, 0.00000000000000000000e+00) (0, 0, 0.00000000000000000000e+00) (0, 0, 0.00000000000000000000e+00) (0, 0, 0.00000000000000000000e+00) (0, 0, 0.00000000000000000000e+00) (0, 0, 0.00000000000000000000e+00) (0, 0, 0.00000000000000000000e+00) (0, 0, 0.00000000000000000000e+00) (0, 0, 0.00000000000000000000e+00) (0, 0, 0.00000000000000000000e+00) (0, 0, 0.00000000000000000000e+00) (0, 0, 0.00000000000000000000e+00) (0, 0, 0.00000000000000000000e+00) (0, 0, 0.00000000000000000000e+00) (0, 0, 0.00000000000000000000e+00) (0, 0, 0.00000000000000000000e+00) (0, 0, 0.00000000000000000000e+00) (0, 0, 0.00000000000000000000e+00) (0, 0, 0.00000000000000000000e+00) (0, 0, 0.00000000000000000000e+00) (0, 0, 0.00000000000000000000e+00) (0, 0, 0.00000000000000000000e+00) (0, 0, 0.00000000000000000000e+00) (0, 0, 0.00000000000000000000e+00) (0, 0, 0.00000000000000000000e+00) (0, 0, 0.00000000000000000000e+00) (0, 0, 0.00000000000000000000e+00) (0, 0, 0.00000000000000000000e+00) (0, 0, 0.00000000000000000000e+00) (0, 0, 0.00000000000000000000e+00) (0, 0, 0.00000000000000000000e+00) (0, 0, 0.00000000000000000000e+00) (0, 0, 0.00000000000000000000e+00) (0, 0, 0.00000000000000000000e+00) (0, 0, 0.00000000000000000000e+00) (0, 0, 0.00000000000000000000e+00) (0, 0, 0.00000000000000000000e+00) (0, 0, 0.00000000000000000000e+00) (0, 0, 0.00000000000000000000e+00) (0, 0, 0.00000000000000000000e+00) (0, 0, 0.00000000000000000000e+00) (0, 0, 0.00000000000000000000e+00) (0, 0, 0.00000000000000000000e+00) (0, 0, 0.00000000000000000000e+00) (0, 0, 0.00000000000000000000e+00) (0, 0, 0.00000000000000000000e+00) (0, 0, 0.00000000000000000000e+00) (0, 0, 0.00000000000000000000e+00) (0, 0, 0.00000000000000000000e+00) (0, 0, 0.00000000000000000000e+00) (0, 0, 0.00000000000000000000e+00) (0, 0, 0.00000000000000000000e+00) (0, 0, 0.00000000000000000000e+00) (0, 0, 0.00000000000000000000e+00) (0, 0, 0.00000000000000000000e+00) (0, 0, 0.00000000000000000000e+00) (0, 0, 0.00000000000000000000e+00) (0, 0, 0.00000000000000000000e+00) (0, 0, 0.00000000000000000000e+00) (0, 0, 0.00000000000000000000e+00) (0, 0, 0.00000000000000000000e+00) (0, 0, 0.00000000000000000000e+00) (0, 0, 0.00000000000000000000e+00) (0, 0, 0.00000000000000000000e+00) (0, 0, 0.00000000000000000000e+00) (0, 0, 0.00000000000000000000e+00) (0, 0, 0.00000000000000000000e+00) (0, 0, 0.00000000000000000000e+00) (0, 0, 0.00000000000000000000e+00) (0, 0, 0.00000000000000000000e+00) (0, 0, 0.00000000000000000000e+00) (0, 0, 0.00000000000000000000e+00) (0, 0, 0.00000000000000000000e+00) (0, 0, 0.00000000000000000000e+00) (0, 0, 0.00000000000000000000e+00) (0, 0, 0.00000000000000000000e+00) (0, 0, 0.00000000000000000000e+00) (0, 0, 0.00000000000000000000e+00) (0, 0, 0.00000000000000000000e+00) (0, 0, 0.00000000000000000000e+00) (0, 0, 0.00000000000000000000e+00) (0, 0, 0.00000000000000000000e+00) (0, 0, 0.00000000000000000000e+00) (0, 0, 0.00000000000000000000e+00) (0, 0, 0.00000000000000000000e+00) (0, 0, 0.00000000000000000000e+00) (0, 0, 0.00000000000000000000e+00) (0, 0, 0.00000000000000000000e+00) (97, 5, 5.00000000000000000000e-01) (97, 5, 5.00000000000000000000e-01) (97, 5, 5.00000000000000000000e-01) (97, 5, 5.00000000000000000000e-01) (97, 5, 5.00000000000000000000e-01) (97, 5, 5.00000000000000000000e-01) (97, 5, 5.00000000000000000000e-01) (97, 5, 5.00000000000000000000e-01) (97, 5, 5.00000000000000000000e-01) (97, 5, 5.00000000000000000000e-01) (97, 5, 5.00000000000000000000e-01) (97, 5, 5.00000000000000000000e-01) (97, 5, 5.00000000000000000000e-01) (97, 5, 5.00000000000000000000e-01) (97, 5, 5.00000000000000000000e-01) (97, 5, 5.00000000000000000000e-01) (97, 5, 5.00000000000000000000e-01) (97, 5, 5.00000000000000000000e-01) (97, 5, 5.00000000000000000000e-01) (97, 5, 5.00000000000000000000e-01) (97, 5, 5.00000000000000000000e-01) (97, 5, 5.00000000000000000000e-01) (97, 5, 5.00000000000000000000e-01) (97, 5, 5.00000000000000000000e-01) (97, 5, 5.00000000000000000000e-01) (97, 5, 5.00000000000000000000e-01) (97, 5, 5.00000000000000000000e-01) (97, 5, 5.00000000000000000000e-01) (97, 5, 5.00000000000000000000e-01) (97, 5, 5.00000000000000000000e-01) (97, 5, 5.00000000000000000000e-01) (97, 5, 5.00000000000000000000e-01) (97, 5, 5.00000000000000000000e-01) (97, 5, 5.00000000000000000000e-01) (97, 5, 5.00000000000000000000e-01) (97, 5, 5.00000000000000000000e-01) (97, 5, 5.00000000000000000000e-01) (97, 5, 5.00000000000000000000e-01) (97, 5, 5.00000000000000000000e-01) (97, 5, 5.00000000000000000000e-01) (97, 5, 5.00000000000000000000e-01) (97, 5, 5.00000000000000000000e-01) (97, 5, 5.00000000000000000000e-01) (97, 5, 5.00000000000000000000e-01) (97, 5, 5.00000000000000000000e-01) (97, 5, 5.00000000000000000000e-01) (97, 5, 5.00000000000000000000e-01) (97, 5, 5.00000000000000000000e-01) (97, 5, 5.00000000000000000000e-01) (97, 5, 5.00000000000000000000e-01) (97, 5, 5.00000000000000000000e-01) (97, 5, 5.00000000000000000000e-01) (97, 5, 5.00000000000000000000e-01) (97, 5, 5.00000000000000000000e-01) (97, 5, 5.00000000000000000000e-01) (97, 5, 5.00000000000000000000e-01) (97, 5, 5.00000000000000000000e-01) (97, 5, 5.00000000000000000000e-01) (97, 5, 5.00000000000000000000e-01) (97, 5, 5.00000000000000000000e-01) (97, 5, 5.00000000000000000000e-01) (97, 5, 5.00000000000000000000e-01) (97, 5, 5.00000000000000000000e-01) (97, 5, 5.00000000000000000000e-01) (97, 5, 5.00000000000000000000e-01) (97, 5, 5.00000000000000000000e-01) (97, 5, 5.00000000000000000000e-01) (97, 5, 5.00000000000000000000e-01) (97, 5, 5.00000000000000000000e-01) (97, 5, 5.00000000000000000000e-01) (97, 5, 5.00000000000000000000e-01) (97, 5, 5.00000000000000000000e-01) (97, 5, 5.00000000000000000000e-01) (97, 5, 5.00000000000000000000e-01) (97, 5, 5.00000000000000000000e-01) (97, 5, 5.00000000000000000000e-01) (97, 5, 5.00000000000000000000e-01) (97, 5, 5.00000000000000000000e-01) (97, 5, 5.00000000000000000000e-01) (97, 5, 5.00000000000000000000e-01) (97, 5, 5.00000000000000000000e-01) (97, 5, 5.00000000000000000000e-01) (97, 5, 5.00000000000000000000e-01) (97, 5, 5.00000000000000000000e-01) (97, 5, 5.00000000000000000000e-01) (97, 5, 5.00000000000000000000e-01) (97, 5, 5.00000000000000000000e-01) (97, 5, 5.00000000000000000000e-01) (97, 5, 5.00000000000000000000e-01) (97, 5, 5.00000000000000000000e-01) (97, 5, 5.00000000000000000000e-01) (97, 5, 5.00000000000000000000e-01) (97, 5, 5.00000000000000000000e-01) (97, 5, 5.00000000000000000000e-01) (97, 5, 5.00000000000000000000e-01) (97, 5, 5.00000000000000000000e-01) (97, 5, 5.00000000000000000000e-01) (97, 5, 5.00000000000000000000e-01) (97, 5, 5.00000000000000000000e-01) (97, 5, 5.00000000000000000000e-01) (97, 5, 5.00000000000000000000e-01) (97, 5, 5.00000000000000000000e-01) (97, 5, 5.00000000000000000000e-01) (97, 5, 5.00000000000000000000e-01) (97, 5, 5.00000000000000000000e-01) (97, 5, 5.00000000000000000000e-01) (97, 5, 5.00000000000000000000e-01) (97, 5, 5.00000000000000000000e-01) (97, 5, 5.00000000000000000000e-01) (97, 5, 5.00000000000000000000e-01) (97, 5, 5.00000000000000000000e-01) (97, 5, 5.00000000000000000000e-01) (97, 5, 5.00000000000000000000e-01) (97, 5, 5.00000000000000000000e-01) (97, 5, 5.00000000000000000000e-01) (97, 5, 5.00000000000000000000e-01) (97, 5, 5.00000000000000000000e-01) (97, 5, 5.00000000000000000000e-01) (97, 5, 5.00000000000000000000e-01) (97, 5, 5.00000000000000000000e-01) (97, 5, 5.00000000000000000000e-01) (97, 5, 5.00000000000000000000e-01) (97, 5, 5.00000000000000000000e-01) (97, 5, 5.00000000000000000000e-01) (97, 5, 5.00000000000000000000e-01) (97, 5, 5.00000000000000000000e-01) (97, 5, 5.00000000000000000000e-01) (97, 5, 5.00000000000000000000e-01) (97, 5, 5.00000000000000000000e-01) (97, 5, 5.00000000000000000000e-01) (97, 5, 5.00000000000000000000e-01) (97, 5, 5.00000000000000000000e-01) (97, 5, 5.00000000000000000000e-01) (97, 5, 5.00000000000000000000e-01) (97, 5, 5.00000000000000000000e-01) (97, 5, 5.00000000000000000000e-01) (97, 5, 5.00000000000000000000e-01) (97, 5, 5.00000000000000000000e-01) (97, 5, 5.00000000000000000000e-01) (97, 5, 5.00000000000000000000e-01) (97, 5, 5.00000000000000000000e-01) (97, 5, 5.00000000000000000000e-01) (97, 5, 5.00000000000000000000e-01) (97, 5, 5.00000000000000000000e-01) (97, 5, 5.00000000000000000000e-01) (97, 5, 5.00000000000000000000e-01) (97, 5, 5.00000000000000000000e-01) (97, 5, 5.00000000000000000000e-01) (97, 5, 5.00000000000000000000e-01) (97, 5, 5.00000000000000000000e-01) (97, 5, 5.00000000000000000000e-01) (97, 5, 5.00000000000000000000e-01) (97, 5, 5.00000000000000000000e-01) (97, 5, 5.00000000000000000000e-01) (97, 5, 5.00000000000000000000e-01) (97, 5, 5.00000000000000000000e-01) (97, 5, 5.00000000000000000000e-01) (97, 5, 5.00000000000000000000e-01) (97, 5, 5.00000000000000000000e-01) (97, 5, 5.00000000000000000000e-01) (0, 5, 0.00000000000000000000e+00) (161, 3, 5.00000000000000000000e-01) (161, 3, 5.00000000000000000000e-01) (161, 3, 5.00000000000000000000e-01) (161, 3, 5.00000000000000000000e-01) (161, 3, 5.00000000000000000000e-01) (161, 3, 5.00000000000000000000e-01) (161, 3, 5.00000000000000000000e-01) (161, 3, 5.00000000000000000000e-01) (161, 3, 5.00000000000000000000e-01) (161, 3, 5.00000000000000000000e-01) (161, 3, 5.00000000000000000000e-01) (161, 3, 5.00000000000000000000e-01) (161, 3, 5.00000000000000000000e-01) (161, 3, 5.00000000000000000000e-01) (161, 3, 5.00000000000000000000e-01) (161, 3, 5.00000000000000000000e-01) (161, 3, 5.00000000000000000000e-01) (161, 3, 5.00000000000000000000e-01) (161, 3, 5.00000000000000000000e-01) (161, 3, 5.00000000000000000000e-01) (161, 3, 5.00000000000000000000e-01) (161, 3, 5.00000000000000000000e-01) (161, 3, 5.00000000000000000000e-01) (161, 3, 5.00000000000000000000e-01) (161, 3, 5.00000000000000000000e-01) (161, 3, 5.00000000000000000000e-01) (161, 3, 5.00000000000000000000e-01) (161, 3, 5.00000000000000000000e-01) (161, 3, 5.00000000000000000000e-01) (161, 3, 5.00000000000000000000e-01) (161, 3, 5.00000000000000000000e-01) (161, 3, 5.00000000000000000000e-01) (161, 3, 5.00000000000000000000e-01) (161, 3, 5.00000000000000000000e-01) (161, 3, 5.00000000000000000000e-01) (161, 3, 5.00000000000000000000e-01) (161, 3, 5.00000000000000000000e-01) (161, 3, 5.00000000000000000000e-01) (161, 3, 5.00000000000000000000e-01) (161, 3, 5.00000000000000000000e-01) (161, 3, 5.00000000000000000000e-01) (161, 3, 5.00000000000000000000e-01) (161, 3, 5.00000000000000000000e-01) (161, 3, 5.00000000000000000000e-01) (161, 3, 5.00000000000000000000e-01) (161, 3, 5.00000000000000000000e-01) (161, 3, 5.00000000000000000000e-01) (161, 3, 5.00000000000000000000e-01) (161, 3, 5.00000000000000000000e-01) (161, 3, 5.00000000000000000000e-01) (161, 3, 5.00000000000000000000e-01) (161, 3, 5.00000000000000000000e-01) (161, 3, 5.00000000000000000000e-01) (161, 3, 5.00000000000000000000e-01) (161, 3, 5.00000000000000000000e-01) (161, 3, 5.00000000000000000000e-01) (161, 3, 5.00000000000000000000e-01) (161, 3, 5.00000000000000000000e-01) (161, 3, 5.00000000000000000000e-01) (161, 3, 5.00000000000000000000e-01) (161, 3, 5.00000000000000000000e-01) (161, 3, 5.00000000000000000000e-01) (161, 3, 5.00000000000000000000e-01) (161, 3, 5.00000000000000000000e-01) (161, 3, 5.00000000000000000000e-01) (161, 3, 5.00000000000000000000e-01) (161, 3, 5.00000000000000000000e-01) (161, 3, 5.00000000000000000000e-01) (161, 3, 5.00000000000000000000e-01) (161, 3, 5.00000000000000000000e-01) (161, 3, 5.00000000000000000000e-01) (161, 3, 5.00000000000000000000e-01) (161, 3, 5.00000000000000000000e-01) (161, 3, 5.00000000000000000000e-01) (161, 3, 5.00000000000000000000e-01) (161, 3, 5.00000000000000000000e-01) (161, 3, 5.00000000000000000000e-01) (161, 3, 5.00000000000000000000e-01) (161, 3, 5.00000000000000000000e-01) (161, 3, 5.00000000000000000000e-01) (161, 3, 5.00000000000000000000e-01) (161, 3, 5.00000000000000000000e-01) (161, 3, 5.00000000000000000000e-01) (161, 3, 5.00000000000000000000e-01) (161, 3, 5.00000000000000000000e-01) (161, 3, 5.00000000000000000000e-01) (161, 3, 5.00000000000000000000e-01) (161, 3, 5.00000000000000000000e-01) (161, 3, 5.00000000000000000000e-01) (161, 3, 5.00000000000000000000e-01) (161, 3, 5.00000000000000000000e-01) (161, 3, 5.00000000000000000000e-01) (161, 3, 5.00000000000000000000e-01) (161, 3, 5.00000000000000000000e-01) (161, 3, 5.00000000000000000000e-01) (161, 3, 5.00000000000000000000e-01) (0, 3, 0.00000000000000000000e+00) 
connections (connected_to_neuron, weight)=(0, 1.11104667186737060547e+00) (1, 1.97204995155334472656e+00) (2, 5.50314617156982421875e+00) (3, 1.56415331363677978516e+00) (4, -4.87161636352539062500e+00) (5, -3.85686421394348144531e+00) (6, 3.02031660079956054688e+00) (7, -1.32823693752288818359e+00) (8, 5.91892421245574951172e-01) (9, 1.29576098918914794922e+00) (10, 1.40282797813415527344e+00) (11, 2.12264537811279296875e+00) (12, 3.73441839218139648438e+00) (13, -2.48895859718322753906e+00) (14, 2.05973672866821289062e+00) (15, -1.51215982437133789062e+00) (16, 1.12567508220672607422e+00) (17, 1.06164598464965820312e+00) (18, 1.32058310508728027344e+00) (19, -1.30142748355865478516e+00) (20, 3.98713183403015136719e+00) (21, -1.42470216751098632812e+00) (22, 4.19977903366088867188e+00) (23, 4.65441799163818359375e+00) (24, 1.28934657573699951172e+00) (25, 7.23637878894805908203e-01) (26, 3.19470024108886718750e+00) (27, 1.12762200832366943359e+00) (28, 6.11493253707885742188e+00) (29, 1.30389881134033203125e+00) (30, -1.08789598941802978516e+00) (31, 1.64472770690917968750e+00) (32, 6.35365247726440429688e-01) (33, 4.23771095275878906250e+00) (34, 1.61026108264923095703e+00) (35, 2.80711388587951660156e+00) (36, 2.00403094291687011719e+00) (37, 1.81817817687988281250e+00) (38, 2.43704652786254882812e+00) (39, 3.57798814773559570312e+00) (40, 3.21909594535827636719e+00) (41, 8.31673979759216308594e-01) (42, 4.06737774610519409180e-02) (43, -9.79903280735015869141e-01) (44, -6.04291057586669921875e+00) (45, 2.30589365959167480469e+00) (46, 5.38789808750152587891e-01) (47, -1.14277052879333496094e+00) (48, 1.06058895587921142578e+00) (49, 1.96785783767700195312e+00) (50, 3.08102107048034667969e+00) (51, 1.91466951370239257812e+00) (52, -2.19238162040710449219e+00) (53, -5.47607707977294921875e+00) (54, 4.83762502670288085938e+00) (55, -1.34218339920043945312e+01) (56, 5.75886011123657226562e-01) (57, 1.55316126346588134766e+00) (58, 1.66436088085174560547e+00) (59, 1.60099053382873535156e+00) (60, 3.60120415687561035156e-01) (61, 4.50129556655883789062e+00) (62, -3.39220225811004638672e-01) (63, -1.32185983657836914062e+00) (64, 5.22051930427551269531e-01) (65, 1.16218233108520507812e+00) (66, 2.12165689468383789062e+00) (67, 2.18363380432128906250e+00) (68, 1.80350804328918457031e+00) (69, 9.66752588748931884766e-01) (70, 3.27480340003967285156e+00) (71, 1.56956696510314941406e+00) (72, 1.39465785026550292969e+00) (73, -1.17574119567871093750e+00) (74, 2.97136640548706054688e+00) (75, -3.89323234558105468750e+00) (76, 4.53086662292480468750e+00) (77, 5.90727031230926513672e-01) (78, -1.90405344963073730469e+00) (79, -2.20062503814697265625e+01) (80, 9.45936679840087890625e-01) (81, 1.57444369792938232422e+00) (82, 2.00661492347717285156e+00) (83, 2.71102094650268554688e+00) (84, -8.19392353296279907227e-02) (85, -9.38559114933013916016e-01) (86, -1.52761507034301757812e+00) (87, 2.84165203571319580078e-01) (88, 3.39792108535766601562e+00) (89, 3.15611451864242553711e-01) (90, 1.01588976383209228516e+00) (91, 6.98392093181610107422e-02) (92, 1.68009769916534423828e+00) (93, -5.39110481739044189453e-01) (94, 5.46163558959960937500e+00) (95, 9.29426133632659912109e-01) (96, 1.47190845012664794922e+00) (0, 1.40896022319793701172e+00) (1, -1.82497596740722656250e+00) (2, 1.75166535377502441406e+00) (3, 9.96602821350097656250e+00) (4, 5.62067329883575439453e-01) (5, 1.24413102865219116211e-01) (6, 2.33332729339599609375e+00) (7, -9.00818634033203125000e+00) (8, -9.62690055370330810547e-01) (9, 1.06818354129791259766e+00) (10, 2.02455735206604003906e+00) (11, 1.15955190658569335938e+01) (12, -2.28256821632385253906e+00) (13, -2.27879810333251953125e+00) (14, 1.20038878917694091797e+00) (15, 6.80258989334106445312e-01) (16, 1.64143133163452148438e+00) (17, -1.59777319431304931641e+00) (18, 4.38111352920532226562e+00) (19, -2.95786428451538085938e+00) (20, 1.24616467952728271484e+00) (21, -6.71872186660766601562e+00) (22, 1.79810345172882080078e+00) (23, 3.92010426521301269531e+00) (24, 1.33667981624603271484e+00) (25, -7.27109834551811218262e-02) (26, -1.34897708892822265625e+00) (27, -2.96124529838562011719e+00) (28, -1.74019551277160644531e+00) (29, 1.38899493217468261719e+00) (30, 1.33090424537658691406e+00) (31, 3.55939459800720214844e+00) (32, 2.11061024665832519531e+00) (33, -6.74137353897094726562e-01) (34, 1.16133677959442138672e+00) (35, -2.22252726554870605469e+00) (36, -5.37937021255493164062e+00) (37, 4.45451021194458007812e+00) (38, 3.88512372970581054688e+00) (39, -2.61724382638931274414e-01) (40, 6.37681543827056884766e-01) (41, 6.49671375751495361328e-01) (42, 2.10310339927673339844e+00) (43, -3.18960404396057128906e+00) (44, -1.19931402206420898438e+01) (45, 6.22541522979736328125e+00) (46, 3.55587410926818847656e+00) (47, 1.09910857677459716797e+00) (48, 1.40887212753295898438e+00) (49, -2.93036723136901855469e+00) (50, 2.66256093978881835938e-01) (51, 2.90499281883239746094e+00) (52, -2.16185998916625976562e+00) (53, -4.09282922744750976562e+00) (54, 3.05684804916381835938e+00) (55, -1.05929775238037109375e+01) (56, -4.18292433023452758789e-01) (57, 6.69460415840148925781e-01) (58, 1.08193600177764892578e+00) (59, 1.68566370010375976562e+00) (60, 5.47603750228881835938e+00) (61, -2.77028620243072509766e-01) (62, 7.92579746246337890625e+00) (63, 1.05692167282104492188e+01) (64, 9.77853655815124511719e-01) (65, -2.71679282188415527344e+00) (66, 3.55521869659423828125e+00) (67, 5.92944741249084472656e-01) (68, -1.05433630943298339844e+00) (69, -2.11038279533386230469e+00) (70, -2.33128830790519714355e-01) (71, 2.64708304405212402344e+00) (72, 1.44149708747863769531e+00) (73, -7.24169254302978515625e-01) (74, -3.97968918085098266602e-01) (75, 2.25808191299438476562e+00) (76, -6.14186108112335205078e-01) (77, -5.46768784523010253906e-01) (78, 6.81153833866119384766e-01) (79, 8.60420417785644531250e+00) (80, 1.25821149349212646484e+00) (81, 1.11135566234588623047e+00) (82, 1.17358040809631347656e+00) (83, -5.32277345657348632812e+00) (84, 5.74453353881835937500e+00) (85, 5.48545408248901367188e+00) (86, 1.54761052131652832031e+00) (87, 2.01838517189025878906e+00) (88, 5.48942565917968750000e-01) (89, 7.65561044216156005859e-01) (90, 1.24865210056304931641e+00) (91, 1.69574964046478271484e+00) (92, -6.68934488296508789062e+00) (93, -2.23657131195068359375e+00) (94, 1.91097438335418701172e+00) (95, 9.96882247924804687500e+00) (96, 1.45459413528442382812e+00) (0, 1.04265883564949035645e-01) (1, 1.35779595375061035156e+00) (2, -3.50984148681163787842e-02) (3, 8.64921659231185913086e-02) (4, 4.20908302068710327148e-01) (5, 4.60730463266372680664e-01) (6, 7.55339086055755615234e-01) (7, -5.35435378551483154297e-01) (8, 1.20180055499076843262e-01) (9, -2.32163220643997192383e-02) (10, 1.37096643447875976562e-02) (11, -4.93012338876724243164e-01) (12, 8.45751583576202392578e-01) (13, -1.05658209323883056641e+00) (14, -1.10791325569152832031e+00) (15, 1.65714478492736816406e+00) (16, -3.28611791133880615234e-01) (17, 7.03926086425781250000e-01) (18, -1.36858224868774414062e-01) (19, -2.88006931543350219727e-01) (20, -1.78939425945281982422e+00) (21, -2.94295978546142578125e+00) (22, -1.40675270557403564453e+00) (23, 2.67481040954589843750e+00) (24, 1.25590607523918151855e-01) (25, 4.40485119819641113281e-01) (26, -1.31655263900756835938e+00) (27, -2.56345152854919433594e+00) (28, 3.35818603634834289551e-02) (29, -2.73756593465805053711e-01) (30, -5.30614852905273437500e+00) (31, 1.76329934597015380859e+00) (32, 1.33980233222246170044e-02) (33, -2.02979350090026855469e+00) (34, 2.27828904986381530762e-01) (35, 3.84896486997604370117e-01) (36, -1.68119326233863830566e-01) (37, -4.06390309333801269531e-01) (38, 4.99931037425994873047e-01) (39, -2.41504143923521041870e-02) (40, -7.53457307815551757812e-01) (41, 1.54342567920684814453e+00) (42, -3.08353036642074584961e-01) (43, -1.00653445720672607422e+00) (44, 1.37799608707427978516e+00) (45, 1.29042673110961914062e+00) (46, -1.02276712656021118164e-01) (47, -9.25277113914489746094e-01) (48, 4.51642185449600219727e-01) (49, 1.12156200408935546875e+00) (50, -2.86170721054077148438e-01) (51, -8.08242559432983398438e-01) (52, -1.00475406646728515625e+00) (53, 1.26387581229209899902e-01) (54, 1.44872307777404785156e+00) (55, -1.11124026775360107422e+00) (56, 1.94824427366256713867e-01) (57, -9.03014183044433593750e-01) (58, 1.88867062330245971680e-01) (59, -1.48464107513427734375e+00) (60, 7.84754455089569091797e-01) (61, -9.25788998603820800781e-01) (62, -1.89928543567657470703e+00) (63, 3.14182847738265991211e-01) (64, -2.97289371490478515625e-01) (65, 8.69769990444183349609e-01) (66, -3.82798522710800170898e-01) (67, -1.12434113025665283203e+00) (68, 4.02771830558776855469e-01) (69, 5.84712922573089599609e-01) (70, -1.61753520369529724121e-01) (71, -2.80686950683593750000e+00) (72, 2.44007244706153869629e-01) (73, 8.39127719402313232422e-01) (74, 1.75096303224563598633e-01) (75, 4.80888187885284423828e-01) (76, -1.06082463264465332031e+00) (77, -2.84601807594299316406e-01) (78, 1.46792531013488769531e+00) (79, 1.89094245433807373047e-01) (80, -8.29126089811325073242e-02) (81, -8.81904888153076171875e+00) (82, 3.11371803283691406250e-01) (83, 2.31116294860839843750e+00) (84, -7.06323504447937011719e-01) (85, -7.28314816951751708984e-01) (86, -3.10580413788557052612e-02) (87, 3.44338148832321166992e-01) (88, -1.24260485172271728516e+00) (89, 1.05022776126861572266e+00) (90, -2.21773535013198852539e-02) (91, -6.99514210224151611328e-01) (92, -6.20805382728576660156e-01) (93, 3.73825803399085998535e-02) (94, 1.98904120922088623047e+00) (95, 3.84806782007217407227e-01) (96, -1.15574121475219726562e+00) (0, -1.91517025232315063477e-01) (1, -5.58278024196624755859e-01) (2, 8.42906069010496139526e-03) (3, -4.35748398303985595703e-01) (4, 3.24701696634292602539e-01) (5, -1.73038411885499954224e-02) (6, 4.02453571557998657227e-01) (7, 2.52589076757431030273e-01) (8, 5.25450229644775390625e-01) (9, -5.60728371143341064453e-01) (10, 7.52877593040466308594e-01) (11, -2.07415342330932617188e-01) (12, -1.28920555114746093750e-01) (13, -3.60137045383453369141e-01) (14, -6.03861510753631591797e-01) (15, 9.29743349552154541016e-01) (16, 3.17354440689086914062e-01) (17, 2.51942396163940429688e-01) (18, -8.91250371932983398438e-03) (19, 1.64807736873626708984e-01) (20, -5.97177445888519287109e-01) (21, 4.02642607688903808594e-01) (22, 4.24875587224960327148e-01) (23, -1.41260877251625061035e-01) (24, 2.72427741438150405884e-02) (25, -1.85491114854812622070e-01) (26, -6.05273172259330749512e-02) (27, 5.82123398780822753906e-02) (28, 2.65877395868301391602e-01) (29, -1.69289901852607727051e-01) (30, 2.93319582939147949219e-01) (31, -1.17945097386837005615e-01) (32, 5.52347779273986816406e-01) (33, -5.14895975589752197266e-01) (34, 5.60131669044494628906e-01) (35, -2.89518564939498901367e-01) (36, 2.78137952089309692383e-01) (37, -5.61916291713714599609e-01) (38, -4.14449095726013183594e-01) (39, -1.52968645095825195312e-01) (40, 2.98889815807342529297e-01) (41, 4.02816444635391235352e-01) (42, -3.67648631334304809570e-01) (43, 2.91479885578155517578e-01) (44, -3.84352713823318481445e-01) (45, 2.65774995088577270508e-01) (46, -1.44308224320411682129e-01) (47, 2.78861254453659057617e-01) (48, -2.34859779477119445801e-01) (49, -9.35936927795410156250e-01) (50, 7.27151930332183837891e-01) (51, -9.53489467501640319824e-02) (52, 4.35191057622432708740e-02) (53, -1.63731068372726440430e-01) (54, -1.28356859087944030762e-01) (55, 9.69663441181182861328e-01) (56, 4.00463372468948364258e-01) (57, -6.90660849213600158691e-02) (58, 4.40959125757217407227e-01) (59, 8.88129249215126037598e-02) (60, 1.75344884395599365234e-01) (61, 1.61193404346704483032e-02) (62, -2.24414214491844177246e-01) (63, -8.16323876380920410156e-01) (64, 3.37353616952896118164e-01) (65, 5.45865118503570556641e-01) (66, -3.99086207151412963867e-01) (67, -2.71066337823867797852e-01) (68, -1.56741291284561157227e-01) (69, 9.31431055068969726562e-02) (70, -4.78573352098464965820e-01) (71, 2.45570242404937744141e-01) (72, -1.16008251905441284180e-01) (73, -2.94631361961364746094e-01) (74, 4.19452100992202758789e-01) (75, -1.10793039202690124512e-01) (76, 3.35356771945953369141e-01) (77, -2.26451978087425231934e-01) (78, -1.48332789540290832520e-01) (79, -1.00995659828186035156e+00) (80, 3.23717981576919555664e-01) (81, -6.23074293136596679688e-01) (82, 1.17825224995613098145e-01) (83, 1.31063401699066162109e-01) (84, 3.85227203369140625000e-02) (85, -7.58956432342529296875e-01) (86, -4.39458608627319335938e-01) (87, -2.80088335275650024414e-01) (88, 1.71900197863578796387e-01) (89, 4.42864656448364257812e-01) (90, -3.76710087060928344727e-01) (91, 3.59731853008270263672e-01) (92, -1.04493767023086547852e-01) (93, -4.91852685809135437012e-02) (94, -3.56181770563125610352e-01) (95, 5.34005463123321533203e-01) (96, -4.54938918352127075195e-01) (0, 1.55036008358001708984e+00) (1, 3.61484503746032714844e+00) (2, -6.79466366767883300781e-01) (3, 5.48051548004150390625e+00) (4, 9.56504631042480468750e+00) (5, 1.28525876998901367188e+00) (6, -1.53444385528564453125e+00) (7, 5.49478197097778320312e+00) (8, 5.36489784717559814453e-01) (9, 6.41730070114135742188e-01) (10, 1.75358784198760986328e+00) (11, -6.12300097942352294922e-01) (12, -5.92077255249023437500e+00) (13, -1.16239845752716064453e+00) (14, 3.82325863838195800781e+00) (15, -3.33716416358947753906e+00) (16, -7.47699677944183349609e-01) (17, 3.77220243215560913086e-01) (18, 1.32940042018890380859e+00) (19, -3.16079282760620117188e+00) (20, 9.95643079280853271484e-01) (21, -4.63352823257446289062e+00) (22, 2.72518844604492187500e+01) (23, 1.69426822662353515625e+01) (24, 1.98402655124664306641e+00) (25, 1.45485985279083251953e+00) (26, -2.36364412307739257812e+00) (27, 6.29471683502197265625e+00) (28, 5.14343214035034179688e+00) (29, 7.93019354343414306641e-01) (30, 1.20629377365112304688e+01) (31, -2.68937611579895019531e+00) (32, 7.89920151233673095703e-01) (33, 8.66434156894683837891e-01) (34, 1.33401298522949218750e+00) (35, 6.85403406620025634766e-01) (36, 7.12066590785980224609e-01) (37, -9.47288894653320312500e+00) (38, 1.43129329681396484375e+01) (39, -5.85675811767578125000e+00) (40, 2.05175459384918212891e-01) (41, 9.78938698768615722656e-01) (42, 1.05254995822906494141e+00) (43, 4.14658129215240478516e-01) (44, 4.43985080718994140625e+00) (45, 1.57840118408203125000e+01) (46, -9.76545989513397216797e-01) (47, -5.84152340888977050781e-01) (48, 2.52940654754638671875e+00) (49, -3.94677424430847167969e+00) (50, -8.00303363800048828125e+00) (51, -4.48336076736450195312e+00) (52, -6.51776981353759765625e+00) (53, 4.29984599351882934570e-01) (54, 1.07248134613037109375e+01) (55, 1.43627624511718750000e+01) (56, -6.67670011520385742188e-01) (57, -1.96185374259948730469e+00) (58, 5.09321880340576171875e+00) (59, 9.68935394287109375000e+00) (60, -3.86790633201599121094e+00) (61, -6.84263896942138671875e+00) (62, -3.62609416246414184570e-01) (63, -2.02912163734436035156e+00) (64, -1.02437520399689674377e-02) (65, 6.45722270011901855469e-01) (66, -1.99844539165496826172e+00) (67, -1.54632449150085449219e+00) (68, -8.01143741607666015625e+00) (69, 1.35570837402343750000e+03) (70, -3.10437768697738647461e-01) (71, 3.05536365509033203125e+00) (72, 2.94487810134887695312e+00) (73, -1.24633634090423583984e+00) (74, -8.46421718597412109375e+00) (75, -2.46913790702819824219e+00) (76, -1.75481357574462890625e+01) (77, 5.42722988128662109375e+00) (78, -4.97546005249023437500e+00) (79, -6.34984397888183593750e+00) (80, 5.07095813751220703125e-01) (81, 8.19705069065093994141e-01) (82, 1.93167924880981445312e+00) (83, 4.99316406250000000000e+00) (84, -3.56318688392639160156e+00) (85, 6.71769857406616210938e+00) (86, 3.82963347434997558594e+00) (87, -2.99577832221984863281e+00) (88, 3.99389564990997314453e-01) (89, 5.10840368270874023438e+00) (90, -4.01153993606567382812e+00) (91, 3.73370337486267089844e+00) (92, -8.49004328250885009766e-01) (93, -2.28057193756103515625e+01) (94, -5.27631473541259765625e+00) (95, 1.52831878662109375000e+01) (96, 1.18658459186553955078e+00) (0, -2.33251065015792846680e-01) (1, -2.27959319949150085449e-01) (2, -3.64252060651779174805e-01) (3, 5.93098998069763183594e-01) (4, -1.70327857136726379395e-01) (5, 2.34417527914047241211e-01) (6, 3.98132726550102233887e-02) (7, 1.26576769351959228516e+00) (8, -2.75676827877759933472e-02) (9, -5.23534178733825683594e-01) (10, -5.98298273980617523193e-02) (11, 2.85559237003326416016e-01) (12, 4.40841346979141235352e-01) (13, -7.24182605743408203125e-01) (14, -2.65952229499816894531e-01) (15, -6.35794624686241149902e-02) (16, -7.85955414175987243652e-03) (17, 6.79455578327178955078e-01) (18, -1.48123994469642639160e-01) (19, 7.43972435593605041504e-02) (20, 2.36126720905303955078e-01) (21, -3.50929409265518188477e-01) (22, -2.57995724678039550781e-01) (23, 7.84033238887786865234e-01) (24, -2.82658375799655914307e-02) (25, -3.20272386074066162109e-01) (26, -3.42604100704193115234e-01) (27, 7.47297853231430053711e-02) (28, 1.85906216502189636230e-01) (29, -4.66201841831207275391e-01) (30, 2.68066942691802978516e-01) (31, -6.77774548530578613281e-01) (32, -4.31164652109146118164e-01) (33, -7.42170512676239013672e-02) (34, -2.61136349290609359741e-02) (35, 4.29620333015918731689e-02) (36, 5.56259512901306152344e-01) (37, -5.98657310009002685547e-01) (38, 4.05109703540802001953e-01) (39, -3.70830460451543331146e-03) (40, -5.28690934181213378906e-01) (41, 1.71007543802261352539e-01) (42, -2.07476243376731872559e-01) (43, -1.00799567997455596924e-01) (44, -1.04231163859367370605e-01) (45, -1.92846268415451049805e-01) (46, 8.18696543574333190918e-02) (47, -1.05402505397796630859e+00) (48, -3.72531503438949584961e-01) (49, -4.76980924606323242188e-01) (50, -1.31590530276298522949e-01) (51, 5.85709154605865478516e-01) (52, -5.38253664970397949219e-01) (53, 3.04601579904556274414e-01) (54, 5.08532412350177764893e-02) (55, 2.59153187274932861328e-01) (56, -4.08812552690505981445e-01) (57, 6.17179512977600097656e-01) (58, -2.89358198642730712891e-01) (59, -7.09551721811294555664e-02) (60, 5.32819032669067382812e-01) (61, -1.03682830929756164551e-01) (62, 4.19444330036640167236e-02) (63, 4.43791896104812622070e-01) (64, -3.07089358568191528320e-01) (65, 1.86489984393119812012e-01) (66, -4.95929151773452758789e-01) (67, -1.85785248875617980957e-01) (68, 1.83060169219970703125e-01) (69, -1.30844442173838615417e-02) (70, 6.76645100116729736328e-01) (71, 8.27584981918334960938e-01) (72, -3.79877120256423950195e-01) (73, -4.62441504001617431641e-01) (74, -5.35516381263732910156e-01) (75, 3.00398409366607666016e-01) (76, 2.27725617587566375732e-02) (77, 4.22363102436065673828e-01) (78, -3.09872142970561981201e-02) (79, 5.47413706779479980469e-01) (80, -3.13352853059768676758e-01) (81, -1.88366815447807312012e-01) (82, -2.05694675445556640625e-01) (83, 3.86097311973571777344e-01) (84, 6.57871067523956298828e-02) (85, 1.45630938932299613953e-02) (86, 4.62619990110397338867e-01) (87, -1.32607340812683105469e-01) (88, -5.98785936832427978516e-01) (89, 2.47515738010406494141e-01) (90, -1.94106623530387878418e-01) (91, -2.39548534154891967773e-01) (92, 1.38677984476089477539e-01) (93, -3.08977384120225906372e-02) (94, -3.25847506523132324219e-01) (95, -2.14324191212654113770e-01) (96, -3.74048441648483276367e-01) (0, 1.32796132564544677734e+00) (1, 1.28414285182952880859e+00) (2, 4.32072591781616210938e+00) (3, 3.14628064632415771484e-01) (4, 1.33720993995666503906e+00) (5, -6.70416653156280517578e-01) (6, -2.69121503829956054688e+00) (7, -9.96727466583251953125e+00) (8, 1.05415451526641845703e+00) (9, 4.27607250213623046875e+00) (10, 1.70878553390502929688e+00) (11, 1.93197643756866455078e+00) (12, 2.13305640220642089844e+00) (13, 2.36347699165344238281e+00) (14, -2.25579023361206054688e+00) (15, -1.62507450580596923828e+00) (16, 9.79429543018341064453e-01) (17, 5.47502803802490234375e+00) (18, 2.99082779884338378906e+00) (19, -1.29509031772613525391e+00) (20, -5.90595912933349609375e+00) (21, -3.00914955139160156250e+00) (22, 4.99939727783203125000e+00) (23, 1.13548278808593750000e+00) (24, 1.33580958843231201172e+00) (25, 2.17671251296997070312e+00) (26, 5.25176668167114257812e+00) (27, -4.30353546142578125000e+00) (28, 2.01847100257873535156e+00) (29, 7.53811717033386230469e-01) (30, 5.53743219375610351562e+00) (31, -3.21979708969593048096e-02) (32, 1.88892769813537597656e+00) (33, -1.03297874331474304199e-01) (34, -1.00465357303619384766e+00) (35, 1.07469141483306884766e+00) (36, -1.70034384727478027344e+00) (37, -1.28923082351684570312e+00) (38, -5.89467644691467285156e-01) (39, 8.38603556156158447266e-01) (40, 1.31361997127532958984e+00) (41, 4.45511937141418457031e-01) (42, -9.03450906276702880859e-01) (43, 2.01438927650451660156e+00) (44, -1.42987632751464843750e+00) (45, 1.26702213287353515625e+00) (46, 1.53496265411376953125e+00) (47, 4.08647823333740234375e+00) (48, 1.21878540515899658203e+00) (49, 4.25272417068481445312e+00) (50, -4.42266321182250976562e+00) (51, 5.30004382133483886719e-01) (52, 2.99944013357162475586e-01) (53, -1.65273368358612060547e+00) (54, -3.92435789108276367188e+00) (55, -2.26596331596374511719e+00) (56, 1.06620478630065917969e+00) (57, 2.22231030464172363281e+00) (58, 4.34127855300903320312e+00) (59, 2.84640240669250488281e+00) (60, -6.35175704956054687500e-01) (61, -5.04088640213012695312e-01) (62, -7.65491008758544921875e-01) (63, -5.86014926433563232422e-01) (64, 1.12704288959503173828e+00) (65, -1.56926178932189941406e+00) (66, 2.24060344696044921875e+00) (67, 2.00562620162963867188e+00) (68, 1.48588705062866210938e+01) (69, 1.40246248245239257812e+00) (70, -6.10634326934814453125e+00) (71, 3.92852932214736938477e-01) (72, 1.86618769168853759766e+00) (73, 1.18707120418548583984e+00) (74, 1.69667708873748779297e+00) (75, -3.67451643943786621094e+00) (76, -7.74117290973663330078e-01) (77, -2.09772467613220214844e+00) (78, 7.67187237739562988281e-01) (79, -3.96620559692382812500e+00) (80, 1.81669604778289794922e+00) (81, -2.33935856819152832031e+00) (82, -1.67507922649383544922e+00) (83, 1.83906579017639160156e+00) (84, -2.16267839074134826660e-01) (85, 4.48426268994808197021e-02) (86, -5.83492851257324218750e+00) (87, -1.75978755950927734375e+00) (88, 1.13813352584838867188e+00) (89, 6.26391887664794921875e+00) (90, -2.81413614749908447266e-01) (91, 1.47739362716674804688e+00) (92, -2.19198465347290039062e+00) (93, 2.99548530578613281250e+00) (94, -1.04770457744598388672e+00) (95, -2.73794579505920410156e+00) (96, 8.07301819324493408203e-01) (0, 8.39240312576293945312e-01) (1, 1.53123509883880615234e+00) (2, 2.23658919334411621094e+00) (3, -2.06555509567260742188e+00) (4, -3.54714345932006835938e+00) (5, 3.65614986419677734375e+00) (6, -1.58756911754608154297e+00) (7, -5.87236309051513671875e+00) (8, 4.45787787437438964844e-01) (9, 1.44320654869079589844e+00) (10, 2.08832817077636718750e+01) (11, 6.57366991043090820312e-01) (12, -1.86692881584167480469e+00) (13, -8.57874107360839843750e+00) (14, 2.00195169448852539062e+00) (15, -1.51914119720458984375e+00) (16, 3.20432448387145996094e+00) (17, 6.82746767997741699219e-01) (18, 1.19017815589904785156e+00) (19, 5.77197670936584472656e-01) (20, 1.07404351234436035156e-01) (21, -2.29784703254699707031e+00) (22, 5.29700565338134765625e+00) (23, -3.68048834800720214844e+00) (24, 5.86301505565643310547e-01) (25, 1.20447075366973876953e+00) (26, 7.24276363849639892578e-01) (27, -4.31456059217453002930e-01) (28, -6.48831963539123535156e-01) (29, -4.22215640544891357422e-01) (30, 5.47569179534912109375e+00) (31, 1.05534887313842773438e+00) (32, 4.74149286746978759766e-01) (33, 1.40949320793151855469e+00) (34, 1.49976855468750000000e+03) (35, 1.65391218662261962891e+00) (36, -2.32377186417579650879e-01) (37, 2.04693818092346191406e+00) (38, -9.74101051688194274902e-02) (39, -1.85587298870086669922e+00) (40, 2.59498596191406250000e+00) (41, 2.85374331474304199219e+00) (42, -1.38367569446563720703e+00) (43, -1.04246842861175537109e+00) (44, 3.66103744506835937500e+00) (45, -2.13235092163085937500e+00) (46, -2.23973274230957031250e+00) (47, -2.21930280327796936035e-01) (48, 1.19034981727600097656e+00) (49, 8.09695065021514892578e-01) (50, -2.66351938247680664062e+00) (51, -1.12484893798828125000e+01) (52, 4.40947484970092773438e+00) (53, 2.55170893669128417969e+00) (54, -2.36681914329528808594e+00) (55, -7.30628824234008789062e+00) (56, 5.82671642303466796875e-01) (57, 1.15698301792144775391e+00) (58, 1.49977172851562500000e+03) (59, 9.67025518417358398438e-01) (60, 2.51151800155639648438e+00) (61, 5.75609922409057617188e+00) (62, 2.25128546357154846191e-01) (63, 4.02131527662277221680e-01) (64, 2.31681108474731445312e+00) (65, 1.52693533897399902344e+00) (66, 1.48313462734222412109e-01) (67, -1.29206442832946777344e+00) (68, -1.45826220512390136719e+00) (69, 1.67826950550079345703e+00) (70, 2.33280992507934570312e+00) (71, -6.42429637908935546875e+00) (72, 1.14668989181518554688e+00) (73, 5.54757237434387207031e-01) (74, -1.40640115737915039062e+00) (75, -9.46593880653381347656e-01) (76, 1.00744938850402832031e+00) (77, 7.62163877487182617188e-01) (78, 1.18256163597106933594e+00) (79, 6.24903774261474609375e+00) (80, 2.14033097028732299805e-01) (81, 1.48947310447692871094e+00) (82, 1.49977697753906250000e+03) (83, 1.77016282081604003906e+00) (84, 1.21684014797210693359e+00) (85, -5.43528842926025390625e+00) (86, 1.90377223491668701172e+00) (87, 6.64970159530639648438e+00) (88, 1.51029741764068603516e+00) (89, 1.86736667156219482422e+00) (90, -7.73366212844848632812e-01) (91, 1.66704356670379638672e+00) (92, 9.04654324054718017578e-01) (93, 3.34429860115051269531e+00) (94, 7.63674592971801757812e+00) (95, -3.09721136093139648438e+00) (96, 9.17446374893188476562e-01) (0, 4.58261549472808837891e-01) (1, 2.08584928512573242188e+00) (2, -9.44626852869987487793e-02) (3, 3.11990523338317871094e+00) (4, -7.02401876449584960938e+00) (5, -2.13793811798095703125e+01) (6, 4.80380630493164062500e+00) (7, -1.43970525264739990234e+00) (8, 5.41880309581756591797e-01) (9, 3.05506062507629394531e+00) (10, 4.78887975215911865234e-01) (11, 1.14855277538299560547e+00) (12, -2.63831710815429687500e+00) (13, 1.15787410736083984375e+01) (14, 2.77045798301696777344e+00) (15, 2.46331787109375000000e+00) (16, 7.67200231552124023438e-01) (17, -5.85530340671539306641e-01) (18, 6.84201598167419433594e-01) (19, 1.51401138305664062500e+00) (20, -2.23295307159423828125e+00) (21, -6.63933396339416503906e-01) (22, 3.13505560159683227539e-01) (23, -1.61684763431549072266e+00) (24, 5.14293670654296875000e-01) (25, 3.72664785385131835938e+00) (26, 2.24568128585815429688e-01) (27, -1.71103143692016601562e+00) (28, 4.96211647987365722656e-01) (29, 5.34731674194335937500e+01) (30, 1.16490049362182617188e+01) (31, 7.82058715820312500000e-01) (32, 6.98588907718658447266e-01) (33, -9.17046844959259033203e-01) (34, 2.04394131898880004883e-01) (35, 2.67882078886032104492e-01) (36, 1.44781857728958129883e-01) (37, 7.29034973144531250000e+02) (38, -2.66070938110351562500e+00) (39, 1.99945116043090820312e+00) (40, 1.44444370269775390625e+00) (41, -6.13619327545166015625e+00) (42, 5.29476165771484375000e-01) (43, 1.31189692020416259766e+00) (44, 2.37381434440612792969e+00) (45, 2.17100858688354492188e+00) (46, -7.06367194652557373047e-04) (47, 4.08122539520263671875e-01) (48, -1.31893551349639892578e+00) (49, 1.19350214004516601562e+01) (50, -8.32103252410888671875e+00) (51, 4.64594221115112304688e+00) (52, -3.47192287445068359375e+00) (53, 5.09167969226837158203e-01) (54, 8.37358474731445312500e-01) (55, 1.11982250213623046875e+00) (56, 5.24486482143402099609e-01) (57, 1.73731291294097900391e+00) (58, -2.26745915412902832031e+00) (59, 9.42808270454406738281e-01) (60, 2.41774630546569824219e+00) (61, 9.56819593906402587891e-01) (62, -1.88327932357788085938e+00) (63, -6.24350786209106445312e+00) (64, 8.93255054950714111328e-01) (65, -5.83147481083869934082e-02) (66, 1.52232789993286132812e+00) (67, 1.76736211776733398438e+00) (68, -1.75068259239196777344e-01) (69, -1.45323240756988525391e+00) (70, -5.31979942321777343750e+00) (71, -1.96706752777099609375e+01) (72, 2.19290986657142639160e-01) (73, 1.42431151866912841797e+00) (74, 8.76845777034759521484e-01) (75, -2.55692481994628906250e+00) (76, 1.14177787303924560547e+00) (77, 3.90261764526367187500e+01) (78, 8.19360542297363281250e+00) (79, -9.78382968902587890625e+00) (80, 8.41553747653961181641e-01) (81, -4.17429566383361816406e-01) (82, -1.35926991701126098633e-01) (83, -1.34397554397583007812e+00) (84, 3.87790703773498535156e+00) (85, -1.98503379821777343750e+01) (86, -6.39862346649169921875e+00) (87, 4.29118204116821289062e+00) (88, 1.49890553951263427734e+00) (89, -7.23252344131469726562e+00) (90, 1.59131181240081787109e+00) (91, 9.79667723178863525391e-01) (92, 3.79717016220092773438e+00) (93, 2.53977924585342407227e-01) (94, -2.31019854545593261719e+00) (95, -3.92912626266479492188e+00) (96, 4.07139539718627929688e-01) (0, -5.25086283683776855469e-01) (1, -1.76607340574264526367e-01) (2, -2.18226891010999679565e-02) (3, 1.46418139338493347168e-01) (4, 3.17935615777969360352e-01) (5, 1.29459962248802185059e-01) (6, 1.17605537176132202148e-01) (7, -1.71721315383911132812e+00) (8, -4.32081460952758789062e-01) (9, -1.29712462425231933594e+00) (10, -2.28695839643478393555e-01) (11, 3.74699115753173828125e-01) (12, -1.89705669879913330078e-01) (13, 1.97989508509635925293e-01) (14, 4.34010624885559082031e-01) (15, 4.47976768016815185547e-01) (16, -7.61023685336112976074e-02) (17, -2.82098233699798583984e-01) (18, 7.66937732696533203125e-02) (19, 1.80952653288841247559e-01) (20, -9.62083861231803894043e-02) (21, 1.14471904933452606201e-01) (22, -2.72892117500305175781e-01) (23, 4.58403885364532470703e-01) (24, -4.90591317415237426758e-01) (25, 2.05977633595466613770e-02) (26, 1.79040670394897460938e-01) (27, -4.07297641038894653320e-01) (28, -1.13958254456520080566e-01) (29, 5.17932116985321044922e-01) (30, 6.91570490598678588867e-02) (31, 4.91075724363327026367e-01) (32, 2.51969218254089355469e-01) (33, 1.25421494245529174805e-01) (34, -2.55675286054611206055e-01) (35, 3.16906660795211791992e-01) (36, -3.54902237653732299805e-01) (37, -2.32196841388940811157e-02) (38, 1.43553256988525390625e-01) (39, 1.03225596249103546143e-02) (40, -3.70791047811508178711e-01) (41, -1.82014599442481994629e-01) (42, 7.60149955749511718750e-02) (43, -1.61871418356895446777e-01) (44, -5.25234043598175048828e-01) (45, -1.12540148198604583740e-01) (46, 1.81354135274887084961e-01) (47, 4.01334255933761596680e-01) (48, -5.63804388046264648438e-01) (49, -5.39802424609661102295e-02) (50, -1.93401992321014404297e-01) (51, 5.47410786151885986328e-01) (52, -5.93505561351776123047e-01) (53, 1.01447738707065582275e-01) (54, 1.29218682646751403809e-01) (55, 9.31709587574005126953e-01) (56, -3.89228969812393188477e-01) (57, 9.14911329746246337891e-01) (58, -2.27086439728736877441e-01) (59, -2.59469915181398391724e-02) (60, 4.52500224113464355469e-01) (61, -2.63998299837112426758e-01) (62, 9.89504009485244750977e-02) (63, -6.13856017589569091797e-01) (64, -5.07133781909942626953e-01) (65, 2.97567903995513916016e-01) (66, 2.70521908998489379883e-01) (67, 2.62017995119094848633e-01) (68, -7.09510147571563720703e-01) (69, 1.82821124792098999023e-01) (70, 2.96008884906768798828e-01) (71, -1.20469316840171813965e-01) (72, -4.06281501054763793945e-01) (73, 7.42542743682861328125e-02) (74, -2.83893477171659469604e-02) (75, 3.63523125648498535156e-01) (76, 1.66488721966743469238e-01) (77, 3.32004338502883911133e-01) (78, 3.82037281990051269531e-01) (79, 2.96158099174499511719e+00) (80, 7.11286962032318115234e-02) (81, 2.44851559400558471680e-01) (82, -1.79615452885627746582e-01) (83, 3.70545387268066406250e-01) (84, 5.45551359653472900391e-01) (85, 6.99201941490173339844e-01) (86, -2.88779526948928833008e-01) (87, 2.23424315452575683594e-01) (88, -5.67083120346069335938e-01) (89, -7.41686522960662841797e-01) (90, 3.65036755800247192383e-01) (91, 4.09234553575515747070e-01) (92, -9.59468930959701538086e-02) (93, -1.03970862925052642822e-01) (94, -1.52951359748840332031e-01) (95, -2.92717814445495605469e-01) (96, -4.75848406553268432617e-01) (0, 1.18746411800384521484e+00) (1, 1.76624476909637451172e+00) (2, 2.34853720664978027344e+00) (3, 1.14892494678497314453e+00) (4, 2.48008751869201660156e+00) (5, 2.10047531127929687500e+00) (6, 1.16925966739654541016e+00) (7, 2.15700006484985351562e+00) (8, 1.44152116775512695312e+00) (9, 1.40537512302398681641e+00) (10, 1.18881118297576904297e+00) (11, 1.10361738204956054688e+01) (12, 1.57584488391876220703e+00) (13, 1.25812470912933349609e+00) (14, 1.52992546558380126953e+00) (15, 1.54296267032623291016e+00) (16, 1.32420659065246582031e+00) (17, 8.54925274848937988281e-01) (18, 1.11334776878356933594e+00) (19, 2.05143499374389648438e+00) (20, 2.52089214324951171875e+00) (21, 2.65258073806762695312e+00) (22, 1.30801320075988769531e+00) (23, 1.20070993900299072266e+00) (24, 1.21952605247497558594e+00) (25, 1.61039614677429199219e+00) (26, 6.46817855834960937500e+01) (27, 1.09479236602783203125e+00) (28, 2.49662494659423828125e+00) (29, 1.14186286926269531250e+00) (30, 1.26237905025482177734e+00) (31, 1.30874252319335937500e+00) (32, 1.41084253787994384766e+00) (33, 1.70019698143005371094e+00) (34, 1.40720975399017333984e+00) (35, 1.57374238967895507812e+00) (36, 1.59411108493804931641e+00) (37, 9.86165940761566162109e-01) (38, 1.53040492534637451172e+00) (39, 1.16671550273895263672e+00) (40, 9.67606842517852783203e-01) (41, 8.05515170097351074219e-01) (42, 1.31384086608886718750e+00) (43, 1.08883464336395263672e+00) (44, 2.67146921157836914062e+00) (45, 1.12489318847656250000e+00) (46, 1.25328648090362548828e+00) (47, 9.34240043163299560547e-01) (48, 9.01779174804687500000e-01) (49, 1.85032725334167480469e+00) (50, 9.37263584136962890625e+00) (51, 1.12932837009429931641e+00) (52, 2.43031525611877441406e+00) (53, 1.68134427070617675781e+00) (54, 1.36540305614471435547e+00) (55, 3.24735975265502929688e+00) (56, 1.37140142917633056641e+00) (57, 1.97510993480682373047e+00) (58, 1.19646978378295898438e+00) (59, 1.77567267417907714844e+00) (60, 1.63100910186767578125e+00) (61, 1.16082763671875000000e+00) (62, 1.39292263984680175781e+00) (63, 8.33687305450439453125e-01) (64, 1.10503244400024414062e+00) (65, 8.37454795837402343750e-01) (66, 1.21910274028778076172e+00) (67, 1.13300025463104248047e+00) (68, 1.49826300144195556641e+00) (69, 1.32751023769378662109e+00) (70, 2.20395386219024658203e-01) (71, 1.31440591812133789062e+00) (72, 9.24644410610198974609e-01) (73, 1.74216520786285400391e+00) (74, 3.69859194755554199219e+00) (75, 2.17376375198364257812e+00) (76, 2.42460823059082031250e+00) (77, 8.35665762424468994141e-01) (78, 1.62204718589782714844e+00) (79, 4.97506046295166015625e+00) (80, 1.38021945953369140625e+00) (81, 1.15481173992156982422e+00) (82, 1.06009244918823242188e+00) (83, 1.96430051326751708984e+00) (84, 1.21010160446166992188e+00) (85, 1.16110849380493164062e+00) (86, 1.21172749996185302734e+00) (87, 1.00868225097656250000e+00) (88, 1.12353622913360595703e+00) (89, 8.75952541828155517578e-01) (90, 7.34549045562744140625e-01) (91, 1.36967813968658447266e+00) (92, 1.70643293857574462891e+00) (93, 1.14467322826385498047e+00) (94, 9.81081724166870117188e-01) (95, 1.01692342758178710938e+00) (96, 8.54797184467315673828e-01) (0, 9.38610374927520751953e-01) (1, 1.67455387115478515625e+00) (2, 2.34655737876892089844e+00) (3, 1.03837704658508300781e+00) (4, 2.47109985351562500000e+00) (5, 2.77800011634826660156e+00) (6, 1.19158148765563964844e+00) (7, 2.26665782928466796875e+00) (8, 1.49435329437255859375e+00) (9, 1.49133896827697753906e+00) (10, 1.18032646179199218750e+00) (11, 3.31796884536743164062e+00) (12, 1.49753880500793457031e+00) (13, 1.23279726505279541016e+00) (14, 1.60370969772338867188e+00) (15, 1.62869167327880859375e+00) (16, 1.21287572383880615234e+00) (17, 7.93263435363769531250e-01) (18, 1.09302294254302978516e+00) (19, 2.33152627944946289062e+00) (20, 2.50042128562927246094e+00) (21, 2.70908379554748535156e+00) (22, 1.24436306953430175781e+00) (23, 1.01399064064025878906e+00) (24, 1.36939251422882080078e+00) (25, 1.66485548019409179688e+00) (26, 6.47045288085937500000e+01) (27, 1.10545372962951660156e+00) (28, 2.38607120513916015625e+00) (29, 1.09243619441986083984e+00) (30, 1.17865133285522460938e+00) (31, 1.14427709579467773438e+00) (32, 1.25084996223449707031e+00) (33, 2.12254548072814941406e+00) (34, 1.35681164264678955078e+00) (35, 1.48839974403381347656e+00) (36, 1.57630288600921630859e+00) (37, 9.86691892147064208984e-01) (38, 1.15896129608154296875e+00) (39, 1.20562708377838134766e+00) (40, 9.08352613449096679688e-01) (41, 8.21002125740051269531e-01) (42, 1.10430836677551269531e+00) (43, 1.17999804019927978516e+00) (44, 2.48956465721130371094e+00) (45, 1.14074623584747314453e+00) (46, 1.31353414058685302734e+00) (47, 9.70318198204040527344e-01) (48, 8.91001224517822265625e-01) (49, 1.74006724357604980469e+00) (50, 2.96746139526367187500e+01) (51, 1.34519040584564208984e+00) (52, 2.44959640502929687500e+00) (53, 1.74351155757904052734e+00) (54, 1.39063191413879394531e+00) (55, 5.08106803894042968750e+00) (56, 1.32936787605285644531e+00) (57, 2.14682006835937500000e+00) (58, 1.30891990661621093750e+00) (59, 1.93451762199401855469e+00) (60, 1.58333349227905273438e+00) (61, 1.19553339481353759766e+00) (62, 1.49985039234161376953e+00) (63, 1.02751159667968750000e+00) (64, 8.42072010040283203125e-01) (65, 8.87506544589996337891e-01) (66, 1.15569376945495605469e+00) (67, 1.21783673763275146484e+00) (68, 1.40958905220031738281e+00) (69, 1.42674195766448974609e+00) (70, 2.02361539006233215332e-01) (71, 1.25281834602355957031e+00) (72, 8.99090230464935302734e-01) (73, 1.69186234474182128906e+00) (74, 3.61892962455749511719e+00) (75, 2.57790589332580566406e+00) (76, 2.55216455459594726562e+00) (77, 9.85889613628387451172e-01) (78, 1.63318479061126708984e+00) (79, 5.01314353942871093750e+00) (80, 1.31004178524017333984e+00) (81, 1.54264020919799804688e+00) (82, 1.06633841991424560547e+00) (83, 1.66421866416931152344e+00) (84, 1.20538759231567382812e+00) (85, 1.25388634204864501953e+00) (86, 1.43181586265563964844e+00) (87, 9.64519441127777099609e-01) (88, 8.94777536392211914062e-01) (89, 8.54635775089263916016e-01) (90, 8.07822942733764648438e-01) (91, 1.49225664138793945312e+00) (92, 1.54571211338043212891e+00) (93, 1.11260700225830078125e+00) (94, 9.89964842796325683594e-01) (95, 8.94443154335021972656e-01) (96, 8.51148545742034912109e-01) (0, -1.88367140293121337891e+00) (1, -5.21898329257965087891e-01) (2, 5.06712973117828369141e-01) (3, -1.07362389564514160156e+00) (4, 3.38635325431823730469e-01) (5, 7.71567404270172119141e-01) (6, 2.89099991321563720703e-01) (7, 2.29090332984924316406e+00) (8, -2.30037733912467956543e-01) (9, 2.62357294559478759766e-02) (10, -1.03243879973888397217e-01) (11, -4.39566254615783691406e-01) (12, -1.16710767149925231934e-01) (13, 2.17753574252128601074e-01) (14, 9.36918079853057861328e-01) (15, 7.16019272804260253906e-01) (16, 1.00049757957458496094e+00) (17, -4.98117171227931976318e-02) (18, 1.93819016218185424805e-01) (19, -7.44658231735229492188e-01) (20, -4.62072938680648803711e-01) (21, 8.46734225749969482422e-01) (22, -9.92949247360229492188e-01) (23, -3.30763578414916992188e-01) (24, -1.62511453032493591309e-01) (25, -1.96900501847267150879e-01) (26, 5.96578538417816162109e-01) (27, -2.84622073173522949219e+00) (28, 5.37538111209869384766e-01) (29, -3.47250342369079589844e-01) (30, -4.83631074428558349609e-01) (31, 1.77688375115394592285e-01) (32, -3.52478563785552978516e-01) (33, 4.16358262300491333008e-02) (34, -2.52353511750698089600e-02) (35, -3.73862266540527343750e-01) (36, 5.19253551959991455078e-01) (37, 1.19276297092437744141e+00) (38, -2.06259369850158691406e+00) (39, -5.05699038505554199219e-01) (40, 4.33173716068267822266e-01) (41, -2.52687424421310424805e-01) (42, 3.96964848041534423828e-01) (43, -7.87870883941650390625e-02) (44, -5.40227413177490234375e-01) (45, 1.97394669055938720703e-01) (46, -6.45554542541503906250e-01) (47, -4.02210444211959838867e-01) (48, -1.39021098613739013672e+00) (49, -3.57517339289188385010e-02) (50, 1.02146852016448974609e+00) (51, -4.14119094610214233398e-01) (52, 6.47099554538726806641e-01) (53, -8.61920535564422607422e-01) (54, 1.26713502407073974609e+00) (55, 2.46645197272300720215e-01) (56, -2.43702605366706848145e-01) (57, 5.38031339645385742188e-01) (58, -3.50304096937179565430e-01) (59, 1.00192047655582427979e-01) (60, 3.71653407812118530273e-01) (61, -7.27985084056854248047e-01) (62, -1.42696535587310791016e+00) (63, -9.17926311492919921875e-01) (64, 7.26526618003845214844e-01) (65, 1.43841385841369628906e-01) (66, 6.95092082023620605469e-02) (67, -2.70909011363983154297e-01) (68, 7.47487023472785949707e-02) (69, 6.37627005577087402344e-01) (70, -1.21272873878479003906e+00) (71, -1.07731437683105468750e+00) (72, -5.36419570446014404297e-01) (73, -4.42960858345031738281e-03) (74, 6.50955438613891601562e-01) (75, -6.36754393577575683594e-01) (76, -5.90771913528442382812e-01) (77, 2.08500190638005733490e-03) (78, 2.08060860633850097656e-01) (79, -1.34467828273773193359e+00) (80, -2.74341315031051635742e-01) (81, 1.14563539624214172363e-01) (82, -2.34205931425094604492e-01) (83, 9.99734401702880859375e-02) (84, -3.69090378284454345703e-01) (85, -2.72914290428161621094e-01) (86, -2.46927365660667419434e-02) (87, -3.73814105987548828125e+00) (88, 4.50442254543304443359e-01) (89, -4.76608991622924804688e-01) (90, 1.35385930538177490234e-01) (91, 1.04705162346363067627e-01) (92, 5.96247166395187377930e-02) (93, 5.59539437294006347656e-01) (94, -9.48489308357238769531e-02) (95, -1.21350371837615966797e+00) (96, -6.99004411697387695312e-01) (0, 1.07628345489501953125e+00) (1, 1.66486370563507080078e+00) (2, 2.47980856895446777344e+00) (3, 6.52108311653137207031e-01) (4, 2.43976497650146484375e+00) (5, 1.61703133583068847656e+00) (6, 8.75826239585876464844e-01) (7, 2.25433015823364257812e+00) (8, 1.44556510448455810547e+00) (9, 8.89463245868682861328e-01) (10, 1.19370412826538085938e+00) (11, 3.08809604644775390625e+01) (12, 1.34551584720611572266e+00) (13, 1.18552315235137939453e+00) (14, 1.59731888771057128906e+00) (15, 1.57255280017852783203e+00) (16, 1.21233487129211425781e+00) (17, 8.82952034473419189453e-01) (18, 1.30775916576385498047e+00) (19, 1.28264164924621582031e+00) (20, 2.13927650451660156250e+00) (21, 1.67961823940277099609e+00) (22, 1.31241941452026367188e+00) (23, 1.27540528774261474609e+00) (24, 1.06423246860504150391e+00) (25, 1.73360347747802734375e+00) (26, 2.95463371276855468750e+01) (27, 7.86534905433654785156e-01) (28, 2.39325475692749023438e+00) (29, 1.13895356655120849609e+00) (30, 1.27727627754211425781e+00) (31, 1.20560860633850097656e+00) (32, 1.17569065093994140625e+00) (33, 1.10377097129821777344e+00) (34, 1.26470541954040527344e+00) (35, 1.35423099994659423828e+00) (36, 1.61585175991058349609e+00) (37, 1.01299583911895751953e+00) (38, 1.16353011131286621094e+00) (39, 1.13491821289062500000e+00) (40, 9.27406311035156250000e-01) (41, 8.38823735713958740234e-01) (42, 1.27439773082733154297e+00) (43, 1.12437224388122558594e+00) (44, 2.46965479850769042969e+00) (45, 9.32107925415039062500e-01) (46, 1.26082694530487060547e+00) (47, 1.30335021018981933594e+00) (48, 9.62561249732971191406e-01) (49, 1.85218596458435058594e+00) (50, 1.31112174987792968750e+01) (51, 6.03753745555877685547e-01) (52, 2.53453779220581054688e+00) (53, 1.66227436065673828125e+00) (54, 1.50444078445434570312e+00) (55, 3.38629579544067382812e+00) (56, 1.31091344356536865234e+00) (57, 2.01927113533020019531e+00) (58, 1.17257690429687500000e+00) (59, 1.12995433807373046875e+01) (60, 1.65027999877929687500e+00) (61, 1.10677456855773925781e+00) (62, 2.63100934028625488281e+00) (63, 1.16439902782440185547e+00) (64, 1.12595605850219726562e+00) (65, 1.04393589496612548828e+00) (66, 1.21785330772399902344e+00) (67, 1.18824982643127441406e+00) (68, 1.12018156051635742188e+00) (69, 1.43669486045837402344e+00) (70, 2.40831226110458374023e-01) (71, 1.31475186347961425781e+00) (72, 8.88724863529205322266e-01) (73, 1.69729816913604736328e+00) (74, 2.42645072937011718750e+00) (75, 1.83131217956542968750e+00) (76, 2.58333873748779296875e+00) (77, 1.09953784942626953125e+00) (78, 1.67109739780426025391e+00) (79, 5.02098751068115234375e+00) (80, 1.27833652496337890625e+00) (81, 8.07050049304962158203e-01) (82, 1.13218367099761962891e+00) (83, 5.42019510269165039062e+00) (84, 1.34326004981994628906e+00) (85, 1.06598794460296630859e+00) (86, 1.33461833000183105469e+00) (87, 9.63872373104095458984e-01) (88, 1.04773712158203125000e+00) (89, 9.25638318061828613281e-01) (90, 8.20895731449127197266e-01) (91, 1.48294377326965332031e+00) (92, 1.72082102298736572266e+00) (93, 1.07725024223327636719e+00) (94, 8.12075257301330566406e-01) (95, 1.00653147697448730469e+00) (96, 8.05235266685485839844e-01) (0, 1.04816019535064697266e+00) (1, 1.80276596546173095703e+00) (2, 2.39118146896362304688e+00) (3, 1.03165054321289062500e+00) (4, 2.55091071128845214844e+00) (5, 2.20558547973632812500e+00) (6, 1.17464005947113037109e+00) (7, 2.19208502769470214844e+00) (8, 1.24515640735626220703e+00) (9, 1.41216170787811279297e+00) (10, 1.32717418670654296875e+00) (11, 1.58598303794860839844e+00) (12, 1.58725619316101074219e+00) (13, 1.34475481510162353516e+00) (14, 1.54401743412017822266e+00) (15, 1.62796866893768310547e+00) (16, 9.71282422542572021484e-01) (17, 8.96897554397583007812e-01) (18, 1.16926634311676025391e+00) (19, 1.66839098930358886719e+00) (20, 2.59139108657836914062e+00) (21, 1.51944911479949951172e+00) (22, 1.12378668785095214844e+00) (23, 1.22200012207031250000e+00) (24, 1.18922531604766845703e+00) (25, 1.59915423393249511719e+00) (26, 1.41114234924316406250e+01) (27, 1.22932827472686767578e+00) (28, 2.46123218536376953125e+00) (29, 1.43915963172912597656e+00) (30, 1.09034979343414306641e+00) (31, 1.16467487812042236328e+00) (32, 1.27204203605651855469e+00) (33, 1.73774409294128417969e+00) (34, 1.40720236301422119141e+00) (35, 1.35296499729156494141e+00) (36, 1.49560582637786865234e+00) (37, 9.91570711135864257812e-01) (38, 1.49730694293975830078e+00) (39, 1.13318598270416259766e+00) (40, 1.01810216903686523438e+00) (41, 9.07447099685668945312e-01) (42, 1.15416598320007324219e+00) (43, 1.32807469367980957031e+00) (44, 2.44330358505249023438e+00) (45, 9.96895611286163330078e-01) (46, 1.07007026672363281250e+00) (47, 1.03031599521636962891e+00) (48, 9.12519037723541259766e-01) (49, 1.85040056705474853516e+00) (50, 1.28871917724609375000e+01) (51, 1.17951560020446777344e+00) (52, 2.40549993515014648438e+00) (53, 1.81140792369842529297e+00) (54, 1.36218047142028808594e+00) (55, 4.83134269714355468750e+00) (56, 1.24923062324523925781e+00) (57, 2.05503249168395996094e+00) (58, 1.30634665489196777344e+00) (59, 1.50300598144531250000e+00) (60, 1.64249467849731445312e+00) (61, 1.22454357147216796875e+00) (62, 1.57225835323333740234e+00) (63, 2.76485300064086914062e+00) (64, 1.10834252834320068359e+00) (65, 9.66412663459777832031e-01) (66, 7.94359922409057617188e-01) (67, 1.35131049156188964844e+00) (68, 1.44484007358551025391e+00) (69, 1.44310748577117919922e+00) (70, 1.43234789371490478516e-01) (71, 1.35828065872192382812e+00) (72, 8.84597063064575195312e-01) (73, 1.67953824996948242188e+00) (74, 3.53593993186950683594e+00) (75, 2.31149435043334960938e+00) (76, 2.50208210945129394531e+00) (77, 7.82950580120086669922e-01) (78, 1.43107438087463378906e+00) (79, 4.90027856826782226562e+00) (80, 1.20365846157073974609e+00) (81, 1.21309721469879150391e+00) (82, 1.13965237140655517578e+00) (83, 1.92887580394744873047e+00) (84, 1.15885567665100097656e+00) (85, 1.23857271671295166016e+00) (86, 1.64059841632843017578e+00) (87, 9.38995122909545898438e-01) (88, 1.04896068572998046875e+00) (89, 9.34599876403808593750e-01) (90, 9.18273508548736572266e-01) (91, 1.47719848155975341797e+00) (92, 1.53622925281524658203e+00) (93, 1.03510892391204833984e+00) (94, 9.68282580375671386719e-01) (95, 9.02768671512603759766e-01) (96, 8.43720376491546630859e-01) (0, 5.60710072517395019531e-01) (1, 4.28891181945800781250e-01) (2, -2.73592025041580200195e-01) (3, -1.00823976099491119385e-01) (4, 4.52070564031600952148e-01) (5, -3.26591163873672485352e-01) (6, -8.97762104868888854980e-02) (7, 8.11754241585731506348e-02) (8, 6.02960288524627685547e-01) (9, -4.80963110923767089844e-01) (10, 2.34760381281375885010e-02) (11, -3.74646008014678955078e-01) (12, 2.49568641185760498047e-01) (13, 6.04619562625885009766e-01) (14, 7.93507322669029235840e-02) (15, 5.94474375247955322266e-01) (16, -1.76612004637718200684e-01) (17, 5.40703475475311279297e-01) (18, -3.86002063751220703125e-01) (19, -5.58324754238128662109e-02) (20, -2.63284265995025634766e-01) (21, 3.08322250843048095703e-01) (22, -3.33791315555572509766e-01) (23, 1.62242218852043151855e-01) (24, 6.32164239883422851562e-01) (25, -1.07940614223480224609e-01) (26, -3.41271668672561645508e-01) (27, -9.47503805160522460938e-01) (28, 2.60035604238510131836e-01) (29, -6.05780407786369323730e-02) (30, -5.57392776012420654297e-01) (31, -9.05954241752624511719e-02) (32, 7.72357344627380371094e-01) (33, -1.28618115559220314026e-02) (34, 8.56119990348815917969e-02) (35, 3.12061697244644165039e-01) (36, -7.16499090194702148438e-01) (37, -5.89127957820892333984e-01) (38, -1.21160781383514404297e+00) (39, -1.00680656731128692627e-01) (40, -9.32596921920776367188e-02) (41, 6.54475271701812744141e-01) (42, -3.82125467061996459961e-01) (43, 3.11144888401031494141e-01) (44, -3.39829355478286743164e-01) (45, -2.57412493228912353516e-01) (46, -3.84699344635009765625e-01) (47, -1.66037726402282714844e+00) (48, 4.74169075489044189453e-01) (49, 5.13006269931793212891e-01) (50, -3.22544902563095092773e-01) (51, -2.33262926340103149414e-01) (52, 2.63682067394256591797e-01) (53, -1.45584642887115478516e-01) (54, -1.38419374823570251465e-01) (55, -1.05601537227630615234e+00) (56, 5.52952766418457031250e-01) (57, 1.24784290790557861328e+00) (58, 3.36146533489227294922e-01) (59, 4.65946570038795471191e-02) (60, -2.81631916761398315430e-01) (61, -6.98571205139160156250e-01) (62, -8.43787044286727905273e-02) (63, -4.60567951202392578125e-01) (64, -7.55051448941230773926e-02) (65, 7.46790707111358642578e-01) (66, -7.61842072010040283203e-01) (67, 3.94365876913070678711e-01) (68, -2.09829404950141906738e-01) (69, -6.38114660978317260742e-02) (70, 1.54040768742561340332e-01) (71, 6.68161928653717041016e-01) (72, 5.83832979202270507812e-01) (73, 3.16927701234817504883e-01) (74, -3.76866042613983154297e-01) (75, -1.50633171200752258301e-01) (76, 2.99330949783325195312e-01) (77, -2.43334919214248657227e-01) (78, -3.65494221448898315430e-01) (79, -7.33322277665138244629e-02) (80, 5.15006959438323974609e-01) (81, -5.10455012321472167969e-01) (82, -9.39123257994651794434e-02) (83, 2.10287615656852722168e-01) (84, -8.29078316688537597656e-01) (85, 1.11207686364650726318e-01) (86, -2.68128007650375366211e-01) (87, -1.72285199165344238281e-01) (88, -9.48513820767402648926e-02) (89, 7.10673689842224121094e-01) (90, -1.15965887904167175293e-01) (91, -2.86886319518089294434e-02) (92, -2.33574652671813964844e+00) (93, -5.55105566978454589844e-01) (94, -8.95092412829399108887e-02) (95, -3.65706562995910644531e-01) (96, -5.55881261825561523438e-01) (0, -2.67117023468017578125e-01) (1, -5.29428049921989440918e-02) (2, 3.26241523027420043945e-01) (3, -7.27079138159751892090e-02) (4, 2.57764488458633422852e-01) (5, -1.25628754496574401855e-01) (6, -8.48314240574836730957e-02) (7, -8.41461122035980224609e-02) (8, 1.51943549513816833496e-01) (9, -1.63012415170669555664e-01) (10, -1.07267228886485099792e-02) (11, -5.86868869140744209290e-03) (12, 1.39241725206375122070e-01) (13, -2.65405625104904174805e-01) (14, 3.65294992923736572266e-01) (15, 3.33192646503448486328e-01) (16, -5.32781146466732025146e-03) (17, -5.82597479224205017090e-02) (18, -1.62956923246383666992e-01) (19, 2.25964300334453582764e-02) (20, 5.00435292720794677734e-01) (21, 1.81396186351776123047e-01) (22, -1.42539381980895996094e-01) (23, -7.75581598281860351562e-02) (24, -3.60579788684844970703e-01) (25, -2.32509765774011611938e-02) (26, 9.31250900030136108398e-02) (27, -6.09897784888744354248e-02) (28, 8.86034011840820312500e-01) (29, -3.54504257440567016602e-01) (30, -1.46288260817527770996e-01) (31, -3.65750305354595184326e-02) (32, 8.80848169326782226562e-02) (33, 2.26397402584552764893e-02) (34, 1.05280183255672454834e-01) (35, 2.98473209142684936523e-01) (36, -7.15813264250755310059e-02) (37, -1.83977320790290832520e-01) (38, -1.03845722973346710205e-01) (39, -1.19417540729045867920e-01) (40, 2.75430798530578613281e-01) (41, -1.74951612949371337891e-01) (42, -1.05397999286651611328e-01) (43, 1.70268803834915161133e-01) (44, 4.28573876619338989258e-01) (45, 3.42120468616485595703e-01) (46, -6.10562562942504882812e-02) (47, -5.14706149697303771973e-02) (48, -2.14512631297111511230e-01) (49, -1.84069484472274780273e-01) (50, 4.29251641035079956055e-01) (51, 2.16990292072296142578e-01) (52, 5.54187834262847900391e-01) (53, 5.87867610156536102295e-02) (54, -7.16237798333168029785e-02) (55, 3.55694800615310668945e-01) (56, 1.12009435892105102539e-01) (57, 3.12643349170684814453e-01) (58, -7.20667764544486999512e-02) (59, 1.36020258069038391113e-01) (60, 2.30159804224967956543e-01) (61, -3.16432446241378784180e-01) (62, 1.72704607248306274414e-01) (63, -6.17816150188446044922e-02) (64, 3.93865466117858886719e-01) (65, -1.47147163748741149902e-01) (66, -3.21570515632629394531e-01) (67, -6.60219788551330566406e-02) (68, 2.44544193148612976074e-01) (69, 4.83589261770248413086e-01) (70, -2.91736006736755371094e-01) (71, 7.77275115251541137695e-02) (72, -3.71406644582748413086e-01) (73, -1.07715710997581481934e-01) (74, 8.05487036705017089844e-02) (75, 5.49632906913757324219e-01) (76, 3.67859780788421630859e-01) (77, -2.28159472346305847168e-01) (78, -2.15175792574882507324e-01) (79, -5.86199201643466949463e-03) (80, 9.07276645302772521973e-02) (81, -1.23197600245475769043e-01) (82, -3.91007773578166961670e-02) (83, 2.48098820447921752930e-01) (84, -4.49787646532058715820e-01) (85, -3.85782331228256225586e-01) (86, -3.75698626041412353516e-01) (87, 1.22298542410135269165e-02) (88, 3.29010516405105590820e-01) (89, -8.54619517922401428223e-02) (90, -9.89011302590370178223e-02) (91, 6.15023449063301086426e-02) (92, 6.10256269574165344238e-02) (93, 5.63591979444026947021e-02) (94, -3.09313237667083740234e-01) (95, 3.08237433433532714844e-01) (96, -5.49822926521301269531e-01) (0, -1.21736846864223480225e-01) (1, -2.65799474716186523438e+00) (2, 1.43960639834403991699e-01) (3, 9.09348070621490478516e-01) (4, 8.10039818286895751953e-01) (5, -1.39491796493530273438e-01) (6, -2.44243294000625610352e-01) (7, -2.36413717269897460938e+00) (8, -5.10568916797637939453e-02) (9, 6.63738012313842773438e-01) (10, -4.09144520759582519531e-01) (11, 8.21778357028961181641e-01) (12, 3.00923645496368408203e-01) (13, -3.50241875648498535156e+00) (14, 1.02986848354339599609e+00) (15, 2.25111171603202819824e-01) (16, -2.29143351316452026367e-03) (17, -2.17066302895545959473e-01) (18, -5.69692373275756835938e-01) (19, -6.89461901783943176270e-02) (20, -5.52617371082305908203e-01) (21, -9.23479422926902770996e-02) (22, 4.35052841901779174805e-01) (23, -3.70649039745330810547e-01) (24, -1.50160133838653564453e-01) (25, -4.79513692855834960938e+00) (26, 2.09905073046684265137e-01) (27, -5.92627167701721191406e-01) (28, 4.74432170391082763672e-01) (29, 1.05890445411205291748e-01) (30, 8.90336453914642333984e-01) (31, -3.02469849586486816406e-01) (32, -4.01655614376068115234e-01) (33, 6.13347291946411132812e-01) (34, -1.26400604844093322754e-01) (35, 4.85682100057601928711e-01) (36, -2.97648191452026367188e-01) (37, -1.44508004188537597656e-01) (38, -2.27587366104125976562e+00) (39, 4.76013481616973876953e-01) (40, -8.12155902385711669922e-01) (41, -1.02055072784423828125e-01) (42, 6.06405474245548248291e-02) (43, 5.48392772674560546875e-01) (44, 4.32233586907386779785e-02) (45, 5.96595883369445800781e-01) (46, -1.97669818997383117676e-01) (47, 8.30790027976036071777e-02) (48, -2.95946806669235229492e-01) (49, -1.54841494560241699219e+00) (50, -3.65875731222331523895e-03) (51, 7.43093430995941162109e-01) (52, 1.21213889122009277344e+00) (53, -9.40188705921173095703e-01) (54, 2.28237599134445190430e-01) (55, 1.23183655738830566406e+00) (56, -4.65579718351364135742e-01) (57, 7.23301649093627929688e-01) (58, -1.31903691217303276062e-02) (59, 2.52572953701019287109e-01) (60, -1.54401028156280517578e+00) (61, 3.74276667833328247070e-01) (62, -4.43062543869018554688e-01) (63, 2.05997705459594726562e-01) (64, -4.24800753593444824219e-01) (65, -1.65004990994930267334e-02) (66, -4.01333898305892944336e-01) (67, 3.03781241178512573242e-01) (68, 2.76117622852325439453e-01) (69, -9.12471890449523925781e-01) (70, 2.83291721343994140625e+00) (71, 8.01565170288085937500e-01) (72, -3.47356647253036499023e-01) (73, -2.62462520599365234375e+00) (74, -3.08438818901777267456e-02) (75, 9.54710304737091064453e-01) (76, 1.63308739662170410156e+00) (77, -1.28254735469818115234e+00) (78, 3.08292716741561889648e-01) (79, -3.59409213066101074219e+00) (80, -4.92319166660308837891e-01) (81, 9.30999040603637695312e-01) (82, -3.00289452075958251953e-01) (83, 4.87011462450027465820e-01) (84, -2.00702643394470214844e+00) (85, -3.87737393379211425781e+00) (86, 3.15303891897201538086e-01) (87, -2.64453738927841186523e-02) (88, -7.74309873580932617188e-01) (89, -4.23684120178222656250e-02) (90, -3.20611409842967987061e-02) (91, 1.28029704093933105469e+00) (92, -1.62316590547561645508e-01) (93, -5.17075583338737487793e-02) (94, -1.81188380718231201172e+00) (95, 6.94535374641418457031e-01) (96, -1.99733272194862365723e-01) (0, 2.92493581771850585938e+00) (1, 1.30538141727447509766e+00) (2, 2.53750371932983398438e+00) (3, 2.54016447067260742188e+00) (4, -4.18481559753417968750e+01) (5, 2.64908051490783691406e+00) (6, -2.80354857444763183594e+00) (7, -1.74819927215576171875e+01) (8, 1.36581599712371826172e+00) (9, 1.94454479217529296875e+00) (10, 1.49997790527343750000e+03) (11, 1.11281347274780273438e+00) (12, 6.62129783630371093750e+00) (13, -4.02985239028930664062e+00) (14, 2.42846488952636718750e+00) (15, -2.91813373565673828125e+00) (16, 1.08400317382812500000e+03) (17, -3.84196352958679199219e+00) (18, 2.21922826766967773438e+00) (19, 6.23103284835815429688e+00) (20, 1.73365497589111328125e+01) (21, 1.17430763244628906250e+01) (22, 1.62446737289428710938e+00) (23, 8.95557022094726562500e+00) (24, 2.11908936500549316406e+00) (25, 2.08844542503356933594e+00) (26, -2.33314657211303710938e+00) (27, 1.97568917274475097656e+00) (28, -4.18426856994628906250e+01) (29, 1.50000000000000000000e+03) (30, 3.51465344429016113281e+00) (31, 3.74897718429565429688e+00) (32, 3.28283071517944335938e+00) (33, 1.36178874969482421875e+00) (34, -2.91613445281982421875e+01) (35, 1.05319156646728515625e+01) (36, 1.50225222110748291016e+00) (37, 1.71736490726470947266e+00) (38, 8.18522572517395019531e-01) (39, 3.39313774108886718750e+01) (40, 1.32258898925781250000e+03) (41, 1.19050979614257812500e+00) (42, 2.03773450851440429688e+00) (43, 4.83271408081054687500e+00) (44, 3.07391810417175292969e+00) (45, -1.98653182983398437500e+01) (46, 2.94130916595458984375e+01) (47, -9.74336922168731689453e-01) (48, 1.84397244453430175781e+00) (49, 2.30919480323791503906e+00) (50, -5.67730617523193359375e+00) (51, 3.41833639144897460938e+00) (52, 2.13312110900878906250e+01) (53, 1.68944377899169921875e+01) (54, 7.26276397705078125000e-01) (55, -1.45642414093017578125e+01) (56, 1.33082711696624755859e+00) (57, 4.61919367313385009766e-01) (58, 1.49997570800781250000e+03) (59, 1.45642399787902832031e+00) (60, 3.14215707778930664062e+00) (61, -8.25261592864990234375e+00) (62, 2.40264487266540527344e+00) (63, 8.51144599914550781250e+00) (64, 1.08413476562500000000e+03) (65, -1.84118795394897460938e+00) (66, 3.56030941009521484375e+00) (67, 5.56285190582275390625e+00) (68, 2.03791642189025878906e+00) (69, 1.18219399452209472656e+00) (70, -3.43851923942565917969e-01) (71, -5.91587829589843750000e+00) (72, 1.80062997341156005859e+00) (73, 3.43071937561035156250e+00) (74, 1.22911119461059570312e+00) (75, 3.41932725906372070312e+00) (76, 6.10237503051757812500e+01) (77, 7.07273483276367187500e+00) (78, 3.19533896446228027344e+00) (79, -4.83192672729492187500e+01) (80, 2.87986588478088378906e+00) (81, 4.53778773546218872070e-01) (82, 1.58157753944396972656e+00) (83, 3.59082365036010742188e+00) (84, 1.46295034885406494141e+00) (85, -4.16484184265136718750e+01) (86, 1.95815467834472656250e+01) (87, 7.48417806625366210938e+00) (88, 1.35200720214843750000e+03) (89, -1.00955434143543243408e-01) (90, 2.87214159965515136719e+00) (91, 1.55612540245056152344e+00) (92, -2.30865335464477539062e+00) (93, -6.31246805191040039062e+00) (94, -5.86987078189849853516e-01) (95, 9.07142829895019531250e+00) (96, 2.91688394546508789062e+00) (0, 1.38996660709381103516e-01) (1, 9.50918018817901611328e-01) (2, 6.39642728492617607117e-03) (3, 2.48398676514625549316e-01) (4, -3.15607994794845581055e-01) (5, -6.83115959167480468750e-01) (6, 5.07229864597320556641e-01) (7, -5.55765390396118164062e-01) (8, 1.47098675370216369629e-01) (9, 1.93423971533775329590e-01) (10, -5.98997175693511962891e-01) (11, 6.96968615055084228516e-01) (12, -3.07984322309494018555e-01) (13, 4.43375378847122192383e-01) (14, -9.39817905426025390625e-01) (15, -5.09594678878784179688e-01) (16, -3.86499688029289245605e-02) (17, -8.64242732524871826172e-01) (18, -1.76044061779975891113e-01) (19, 1.64040580391883850098e-01) (20, 1.25051513314247131348e-01) (21, 1.05312418937683105469e+00) (22, -2.99541532993316650391e-01) (23, -1.35843026638031005859e+00) (24, 3.06210607290267944336e-01) (25, 7.98202678561210632324e-02) (26, -2.03441068530082702637e-01) (27, 3.28482925891876220703e-01) (28, -5.77694058418273925781e-01) (29, 6.35836943984031677246e-02) (30, -4.12998586893081665039e-01) (31, 4.82114851474761962891e-01) (32, 2.30808153748512268066e-01) (33, -3.03648018836975097656e+00) (34, -1.58398318290710449219e+00) (35, -9.85970813781023025513e-03) (36, 5.01392960548400878906e-01) (37, 1.73817324638366699219e+00) (38, 4.64143484830856323242e-01) (39, -7.23781406879425048828e-01) (40, 2.85578727722167968750e-01) (41, -9.82922434806823730469e-01) (42, -2.96185791492462158203e-01) (43, 2.08009481430053710938e-01) (44, -4.85919862985610961914e-01) (45, -9.13288444280624389648e-02) (46, -1.06430721282958984375e+00) (47, 6.46036386489868164062e-01) (48, -1.39850199222564697266e-01) (49, 7.65531599521636962891e-01) (50, 5.34302234649658203125e-01) (51, 8.66178154945373535156e-01) (52, -3.77265006303787231445e-01) (53, -5.07278919219970703125e-01) (54, -1.24828028678894042969e+00) (55, 1.70342013239860534668e-01) (56, 4.51009944081306457520e-02) (57, -7.81170248985290527344e-01) (58, -6.14786863327026367188e-01) (59, -3.06972652673721313477e-01) (60, -2.09856674075126647949e-01) (61, 7.57410585880279541016e-01) (62, 1.01774919033050537109e+00) (63, -9.62971866130828857422e-01) (64, -3.29994291067123413086e-01) (65, -2.44126617908477783203e-01) (66, 3.35694164037704467773e-01) (67, 4.52960252761840820312e-01) (68, -3.63297075033187866211e-01) (69, 2.48906254768371582031e-01) (70, 1.24651479721069335938e+00) (71, 6.75710616633296012878e-03) (72, 1.09507746994495391846e-01) (73, 4.81527090072631835938e-01) (74, -1.47922307252883911133e-01) (75, -3.50465983152389526367e-01) (76, 8.35634112358093261719e-01) (77, 2.18138068914413452148e-01) (78, 5.96185564994812011719e-01) (79, 6.87889099121093750000e-01) (80, 1.27783790230751037598e-01) (81, -7.04381883144378662109e-01) (82, -4.26330000162124633789e-01) (83, -1.48117274045944213867e-01) (84, 1.13689529895782470703e+00) (85, 5.19014358520507812500e-01) (86, 1.09221734106540679932e-01) (87, -2.15855792164802551270e-01) (88, 1.00056841969490051270e-01) (89, -1.80881440639495849609e+00) (90, 3.71539533138275146484e-01) (91, -4.44267034530639648438e-01) (92, -3.54601800441741943359e-01) (93, 4.38669860363006591797e-01) (94, -5.30593931674957275391e-01) (95, 9.63336765766143798828e-01) (96, 6.73307180404663085938e-01) (0, 3.85747384279966354370e-03) (1, -6.68153107166290283203e-01) (2, 1.41789048910140991211e-01) (3, 5.17366945743560791016e-01) (4, -5.18908071517944335938e+00) (5, -1.86729240417480468750e+00) (6, 6.44129633903503417969e-01) (7, -2.06880617141723632812e+00) (8, 1.52489960193634033203e-01) (9, -4.61595982313156127930e-01) (10, 2.72289395332336425781e-01) (11, -4.23410892486572265625e-01) (12, 4.99133765697479248047e-01) (13, -2.85843372344970703125e-01) (14, -2.04711958765983581543e-01) (15, 1.16251039505004882812e+00) (16, -1.44470334053039550781e-01) (17, 2.80742317438125610352e-01) (18, -2.31622353196144104004e-01) (19, 9.23233389854431152344e-01) (20, -1.25759869813919067383e-01) (21, -7.33621045947074890137e-02) (22, 8.80599558353424072266e-01) (23, -1.70284703373908996582e-01) (24, -2.03171864151954650879e-01) (25, -9.85744714736938476562e-01) (26, 3.37768459320068359375e+00) (27, 7.43559360504150390625e-01) (28, 4.54806461930274963379e-02) (29, 3.84954124689102172852e-01) (30, -3.08773159980773925781e+00) (31, -1.67287313938140869141e+00) (32, -1.58224627375602722168e-01) (33, 7.33537495136260986328e-01) (34, -4.31582368910312652588e-02) (35, 1.49574112892150878906e+00) (36, -8.58065962791442871094e-01) (37, 7.21094965934753417969e-01) (38, -1.05873024463653564453e+00) (39, 2.02230024337768554688e+00) (40, -1.38327598571777343750e+00) (41, 5.81376969814300537109e-01) (42, -3.62575858831405639648e-01) (43, -8.97390604019165039062e-01) (44, 6.36868402361869812012e-02) (45, -2.43340897560119628906e+00) (46, 3.38165283203125000000e-01) (47, -9.81659293174743652344e-01) (48, -1.06936283409595489502e-01) (49, -3.59228581190109252930e-01) (50, 5.34865200519561767578e-01) (51, 4.92567159235477447510e-02) (52, 1.36940360069274902344e+00) (53, 9.15540575981140136719e-01) (54, -1.15618145465850830078e+00) (55, -7.94505882263183593750e+00) (56, -1.21089249849319458008e-01) (57, 7.22398638725280761719e-01) (58, 1.28599810600280761719e+00) (59, -4.39556151628494262695e-01) (60, 8.31787884235382080078e-01) (61, 4.29932785034179687500e+00) (62, -1.31014242768287658691e-01) (63, -3.28489065170288085938e-01) (64, -5.04324913024902343750e-01) (65, -2.90202319622039794922e-01) (66, 3.90256404876708984375e-01) (67, -1.87197601795196533203e+00) (68, 3.81330330856144428253e-03) (69, -9.41260814666748046875e-01) (70, 1.13101255893707275391e+00) (71, 1.15355873107910156250e+00) (72, -4.22153761610388755798e-03) (73, -7.14706242084503173828e-01) (74, 8.05152431130409240723e-02) (75, 6.59601926803588867188e-01) (76, 3.59025686979293823242e-01) (77, -1.21202135086059570312e+00) (78, -6.05167150497436523438e-01) (79, -7.69434332847595214844e-01) (80, 3.45017343759536743164e-01) (81, -2.53869265317916870117e-01) (82, -7.12102055549621582031e-01) (83, 7.31009781360626220703e-01) (84, -3.84528160095214843750e-01) (85, -2.41042637825012207031e+00) (86, 5.53694546222686767578e-01) (87, 6.65651038289070129395e-02) (88, -6.17051839828491210938e-01) (89, 3.97022724151611328125e-01) (90, -1.51098370552062988281e-01) (91, -9.74227964878082275391e-01) (92, 5.35472631454467773438e-01) (93, -1.41140127182006835938e+00) (94, -7.06630289554595947266e-01) (95, -3.18838842213153839111e-02) (96, -6.54100477695465087891e-01) (0, -4.42242115736007690430e-01) (1, -3.62670481204986572266e-01) (2, 1.30828455090522766113e-01) (3, -1.88543602824211120605e-01) (4, 1.41797021031379699707e-01) (5, 4.20903772115707397461e-01) (6, -1.59968864917755126953e+00) (7, -1.67707562446594238281e+00) (8, -7.56937935948371887207e-02) (9, -1.56479224562644958496e-01) (10, 4.57198143005371093750e-01) (11, -3.07934910058975219727e-01) (12, -8.50050866603851318359e-01) (13, -3.65157812833786010742e-01) (14, 9.12255197763442993164e-02) (15, -2.69735002517700195312e+00) (16, -3.51960152387619018555e-01) (17, -2.33068659901618957520e-01) (18, 5.00685647130012512207e-02) (19, -5.95935955643653869629e-02) (20, 1.46943300962448120117e-01) (21, -8.55378434062004089355e-02) (22, -5.84889769554138183594e-01) (23, 1.17226123809814453125e+00) (24, -2.02594757080078125000e-01) (25, -4.68732416629791259766e-01) (26, -2.53439009189605712891e-01) (27, -4.04744148254394531250e-01) (28, -4.42816823720932006836e-01) (29, -1.59166681766510009766e+00) (30, -6.57927215099334716797e-01) (31, 3.00329089164733886719e-01) (32, -1.05767083168029785156e+00) (33, 6.47532880306243896484e-01) (34, -5.36992959678173065186e-02) (35, 1.51875510811805725098e-01) (36, 3.58624368906021118164e-01) (37, 1.08147096633911132812e+00) (38, -1.16076193749904632568e-01) (39, -1.34466075897216796875e+00) (40, -1.13932335376739501953e+00) (41, -4.52951163053512573242e-01) (42, 9.48073565959930419922e-01) (43, 2.79370718635618686676e-03) (44, 6.61568105220794677734e-01) (45, 3.66986006498336791992e-01) (46, -2.38044157624244689941e-01) (47, 8.92139554023742675781e-01) (48, -6.04625880718231201172e-01) (49, -1.00912429392337799072e-01) (50, 1.00452685356140136719e+00) (51, 4.88922059535980224609e-01) (52, -5.38481414318084716797e-01) (53, -1.01530037820339202881e-01) (54, -4.66905546188354492188e+00) (55, -2.52758264541625976562e-01) (56, -3.03885549306869506836e-01) (57, 3.59439879655838012695e-01) (58, 6.67723119258880615234e-01) (59, -5.50896763801574707031e-01) (60, 3.39077532291412353516e-01) (61, -1.77422463893890380859e+00) (62, 2.22837179899215698242e-01) (63, 4.00346428155899047852e-01) (64, -7.26395487785339355469e-01) (65, -2.29282692074775695801e-01) (66, -3.95411729812622070312e-01) (67, 7.82849192619323730469e-01) (68, 1.40219852328300476074e-01) (69, 7.10187852382659912109e-02) (70, 5.03156781196594238281e-01) (71, 2.31977844238281250000e+00) (72, -2.82151192426681518555e-01) (73, -4.09139335155487060547e-01) (74, -4.44245576858520507812e-01) (75, 4.33026164770126342773e-01) (76, -9.88853156566619873047e-01) (77, -5.35459108650684356689e-02) (78, 1.82200610637664794922e+00) (79, -2.28013682365417480469e+00) (80, -2.18333631753921508789e-01) (81, 2.07542762160301208496e-01) (82, 4.34984147548675537109e-01) (83, -1.09050758183002471924e-01) (84, 2.54905857145786285400e-02) (85, 1.04608607292175292969e+00) (86, 3.99220585823059082031e-01) (87, -1.19506254792213439941e-01) (88, -1.28977489471435546875e+00) (89, -1.04552553966641426086e-02) (90, 2.40127250552177429199e-01) (91, -2.76491194963455200195e-01) (92, 5.67209243774414062500e-01) (93, -1.11459948122501373291e-01) (94, -4.93779987096786499023e-01) (95, -1.80963563919067382812e+00) (96, -7.09630906581878662109e-01) (0, 1.05734455585479736328e+00) (1, 1.67771375179290771484e+00) (2, 2.40318584442138671875e+00) (3, 1.11489880084991455078e+00) (4, 2.46745896339416503906e+00) (5, 1.74006831645965576172e+00) (6, 1.05493712425231933594e+00) (7, 2.19821500778198242188e+00) (8, 1.50894296169281005859e+00) (9, 1.51661956310272216797e+00) (10, 1.28460943698883056641e+00) (11, 3.07848072052001953125e+01) (12, 1.36497747898101806641e+00) (13, 1.11577510833740234375e+00) (14, 1.48222422599792480469e+00) (15, 1.56462156772613525391e+00) (16, 1.44764029979705810547e+00) (17, 8.75941753387451171875e-01) (18, 1.08968389034271240234e+00) (19, 2.14640736579895019531e+00) (20, 2.48939871788024902344e+00) (21, 1.91299271583557128906e+00) (22, 1.35472667217254638672e+00) (23, 9.50419008731842041016e-01) (24, 1.07746112346649169922e+00) (25, 1.67085158824920654297e+00) (26, 1.41627264022827148438e+01) (27, 1.19667100906372070312e+00) (28, 2.42331957817077636719e+00) (29, 1.06473267078399658203e+00) (30, 1.05346536636352539062e+00) (31, 1.19708371162414550781e+00) (32, 1.22425973415374755859e+00) (33, 2.06226825714111328125e+00) (34, 1.22233843803405761719e+00) (35, 1.67217028141021728516e+00) (36, 1.58392679691314697266e+00) (37, 9.37941193580627441406e-01) (38, 1.25933873653411865234e+00) (39, 1.21155178546905517578e+00) (40, 9.94765281677246093750e-01) (41, 8.06639492511749267578e-01) (42, 1.32829940319061279297e+00) (43, 1.36193466186523437500e+00) (44, 2.44814181327819824219e+00) (45, 1.06951880455017089844e+00) (46, 1.46496224403381347656e+00) (47, 9.67333197593688964844e-01) (48, 9.61317300796508789062e-01) (49, 1.64540851116180419922e+00) (50, 1.30205192565917968750e+01) (51, 1.17853796482086181641e+00) (52, 2.42042636871337890625e+00) (53, 1.66565597057342529297e+00) (54, 1.38800132274627685547e+00) (55, 8.55409812927246093750e+00) (56, 1.38210034370422363281e+00) (57, 1.93797087669372558594e+00) (58, 1.18888092041015625000e+00) (59, 1.11026334762573242188e+01) (60, 1.68157815933227539062e+00) (61, 1.19060599803924560547e+00) (62, 1.82201743125915527344e+00) (63, 7.52719700336456298828e-01) (64, 1.40432500839233398438e+00) (65, 8.89129996299743652344e-01) (66, 1.16293728351593017578e+00) (67, 1.22831046581268310547e+00) (68, 1.53202247619628906250e+00) (69, 1.35013961791992187500e+00) (70, 1.64345681667327880859e-01) (71, 1.15206944942474365234e+00) (72, 1.06381618976593017578e+00) (73, 1.62255501747131347656e+00) (74, 3.64015913009643554688e+00) (75, 2.18460893630981445312e+00) (76, 2.63568234443664550781e+00) (77, 1.00253081321716308594e+00) (78, 1.72422420978546142578e+00) (79, 5.02616643905639648438e+00) (80, 1.29244256019592285156e+00) (81, 1.16306841373443603516e+00) (82, 1.20772552490234375000e+00) (83, 4.78172349929809570312e+00) (84, 1.11813008785247802734e+00) (85, 1.12539160251617431641e+00) (86, 1.46658039093017578125e+00) (87, 9.41709399223327636719e-01) (88, 1.27716600894927978516e+00) (89, 9.02333617210388183594e-01) (90, 7.57795691490173339844e-01) (91, 1.36562120914459228516e+00) (92, 1.58130908012390136719e+00) (93, 1.18949854373931884766e+00) (94, 7.62527048587799072266e-01) (95, 9.68231618404388427734e-01) (96, 9.25216376781463623047e-01) (0, 1.06212174892425537109e+00) (1, 1.56632637977600097656e+00) (2, 2.50141811370849609375e+00) (3, 1.00819349288940429688e+00) (4, 2.50486683845520019531e+00) (5, 1.63963484764099121094e+00) (6, 7.75819718837738037109e-01) (7, 2.17872881889343261719e+00) (8, 1.46652138233184814453e+00) (9, 1.38031136989593505859e+00) (10, 1.18095147609710693359e+00) (11, 1.37559757232666015625e+01) (12, 1.39296495914459228516e+00) (13, 1.12479019165039062500e+00) (14, 1.49009466171264648438e+00) (15, 1.47620177268981933594e+00) (16, 1.22668957710266113281e+00) (17, 8.67273926734924316406e-01) (18, 1.16664314270019531250e+00) (19, 2.02832508087158203125e+00) (20, 2.45160889625549316406e+00) (21, 1.94335520267486572266e+00) (22, 1.19243669509887695312e+00) (23, 9.25270855426788330078e-01) (24, 1.04593241214752197266e+00) (25, 1.67410087585449218750e+00) (26, 3.28419570922851562500e+01) (27, 1.07261276245117187500e+00) (28, 2.53786587715148925781e+00) (29, 1.13236939907073974609e+00) (30, 1.01517987251281738281e+00) (31, 1.26731002330780029297e+00) (32, 1.30905461311340332031e+00) (33, 1.76903057098388671875e+00) (34, 1.33297395706176757812e+00) (35, 1.34013068675994873047e+00) (36, 1.64301753044128417969e+00) (37, 9.28182423114776611328e-01) (38, 1.50522255897521972656e+00) (39, 1.22707402706146240234e+00) (40, 1.05956351757049560547e+00) (41, 8.01947772502899169922e-01) (42, 1.21354866027832031250e+00) (43, 1.25141870975494384766e+00) (44, 2.57135796546936035156e+00) (45, 9.71177041530609130859e-01) (46, 1.15615224838256835938e+00) (47, 1.06566774845123291016e+00) (48, 9.59438502788543701172e-01) (49, 1.69710564613342285156e+00) (50, 4.54709148406982421875e+00) (51, 1.08900880813598632812e+00) (52, 2.46828842163085937500e+00) (53, 1.66216897964477539062e+00) (54, 1.35304152965545654297e+00) (55, 3.33357930183410644531e+00) (56, 1.38687634468078613281e+00) (57, 1.93271553516387939453e+00) (58, 1.23792898654937744141e+00) (59, 2.71895098686218261719e+00) (60, 1.64029526710510253906e+00) (61, 1.16333258152008056641e+00) (62, 2.58883023262023925781e+00) (63, 1.13768279552459716797e+00) (64, 1.03554332256317138672e+00) (65, 9.72925186157226562500e-01) (66, 1.18088531494140625000e+00) (67, 1.28204989433288574219e+00) (68, 1.60117948055267333984e+00) (69, 1.37987315654754638672e+00) (70, 1.37572929263114929199e-01) (71, 1.27643060684204101562e+00) (72, 9.77433383464813232422e-01) (73, 1.60908532142639160156e+00) (74, 3.59537506103515625000e+00) (75, 2.13102030754089355469e+00) (76, 2.47515797615051269531e+00) (77, 8.93954336643218994141e-01) (78, 1.38905608654022216797e+00) (79, 5.00663423538208007812e+00) (80, 1.39051735401153564453e+00) (81, 1.24766790866851806641e+00) (82, 1.10087060928344726562e+00) (83, 1.66038632392883300781e+00) (84, 1.13204038143157958984e+00) (85, 1.28198540210723876953e+00) (86, 1.24390220642089843750e+00) (87, 1.04147958755493164062e+00) (88, 9.96155798435211181641e-01) (89, 8.39451491832733154297e-01) (90, 7.52807796001434326172e-01) (91, 1.52202904224395751953e+00) (92, 1.63493895530700683594e+00) (93, 1.03403902053833007812e+00) (94, 8.81596684455871582031e-01) (95, 1.03170084953308105469e+00) (96, 8.65575313568115234375e-01) (0, 4.03768390417098999023e-01) (1, 1.49931201171875000000e+03) (2, -4.67140998840332031250e+01) (3, 1.49902905273437500000e+03) (4, 1.54027187824249267578e+00) (5, -2.88394212722778320312e+00) (6, -1.88100452423095703125e+01) (7, -1.50923507690429687500e+02) (8, 6.82101964950561523438e-01) (9, 4.98657178878784179688e+00) (10, -1.60653543472290039062e+00) (11, 1.49972082519531250000e+03) (12, 1.65789201855659484863e-01) (13, 1.78298065185546875000e+02) (14, 2.00098276138305664062e+00) (15, 1.59192543029785156250e+01) (16, 3.76023709774017333984e-01) (17, 1.77203998565673828125e+01) (18, 1.29164352416992187500e+02) (19, -1.56580775976181030273e-01) (20, -1.37787735462188720703e+00) (21, -6.18502274155616760254e-02) (22, 8.99269521236419677734e-01) (23, 7.74128055572509765625e+00) (24, 3.79625111818313598633e-01) (25, 1.49984289550781250000e+03) (26, 8.35332214832305908203e-01) (27, 1.49934948730468750000e+03) (28, -1.01327638626098632812e+01) (29, -7.32254362106323242188e+00) (30, -6.66387319564819335938e-01) (31, 1.49977758789062500000e+03) (32, 1.45629489421844482422e+00) (33, 1.72304175794124603271e-02) (34, -5.10263681411743164062e-01) (35, 7.99786090850830078125e-01) (36, 1.16161465644836425781e+00) (37, -1.86649179458618164062e+00) (38, -1.85954606533050537109e+00) (39, 9.54512238502502441406e-01) (40, 1.87801182270050048828e-01) (41, 1.21957721710205078125e+01) (42, 1.33403100967407226562e+01) (43, -7.21528157591819763184e-02) (44, 6.35721492767333984375e+00) (45, 1.10344350337982177734e+00) (46, 2.44856029748916625977e-02) (47, -7.69549727439880371094e-01) (48, 4.86194908618927001953e-01) (49, 1.49980847167968750000e+03) (50, 1.00622880458831787109e+00) (51, 1.49916796875000000000e+03) (52, -5.70881271362304687500e+01) (53, -1.08107542991638183594e+00) (54, -1.41143989562988281250e+01) (55, 3.26305866241455078125e+00) (56, 9.95944738388061523438e-01) (57, 1.50629565119743347168e-01) (58, -2.28113784790039062500e+02) (59, 1.49965454101562500000e+03) (60, 1.72691255807876586914e-01) (61, 4.23156005859375000000e+02) (62, 1.21222162246704101562e+00) (63, -2.04094715118408203125e+01) (64, 7.74809569120407104492e-02) (65, 5.59098548889160156250e+01) (66, 9.48905792236328125000e+01) (67, 3.94612371921539306641e-01) (68, -6.41130030155181884766e-01) (69, 2.13260680437088012695e-01) (70, 1.25402107238769531250e+01) (71, 6.21817171573638916016e-01) (72, 1.66838645935058593750e-01) (73, 1.49991125488281250000e+03) (74, 8.69073867797851562500e+00) (75, 1.49977392578125000000e+03) (76, -6.84870481491088867188e+00) (77, -6.51671811938285827637e-02) (78, 5.55776119232177734375e-01) (79, 8.62098884582519531250e+00) (80, 2.09155631065368652344e+00) (81, -3.82128715515136718750e-01) (82, -7.33773887157440185547e-01) (83, -2.15964913368225097656e-02) (84, 5.64327120780944824219e-01) (85, 5.14177322387695312500e+01) (86, 1.88547408580780029297e+00) (87, -1.91470384597778320312e+00) (88, 4.21129375696182250977e-01) (89, 7.90073251724243164062e+00) (90, 1.48277163505554199219e-01) (91, -4.40746210515499114990e-02) (92, 1.49862365722656250000e+03) (93, 2.75248959660530090332e-02) (94, 6.64542531967163085938e+00) (95, 2.94563323259353637695e-01) (96, 1.93497493863105773926e-01) (0, 4.64805513620376586914e-01) (1, -1.53031802177429199219e+00) (2, -6.24659061431884765625e-01) (3, 5.71451473236083984375e+00) (4, 2.66211485862731933594e+00) (5, -7.13608205318450927734e-01) (6, 1.38705205917358398438e+00) (7, -4.81379508972167968750e+00) (8, 1.83598324656486511230e-01) (9, -6.88310712575912475586e-03) (10, -5.19839227199554443359e-01) (11, -4.62008506059646606445e-01) (12, -2.24046373367309570312e+00) (13, 1.24158322811126708984e+00) (14, -2.78063869476318359375e+00) (15, -1.57878255844116210938e+00) (16, -1.94635633379220962524e-02) (17, 8.38631272315979003906e-01) (18, -6.37807846069335937500e-01) (19, -2.69517302513122558594e-01) (20, 4.50342416763305664062e-01) (21, 1.63166940212249755859e-01) (22, 3.31407380104064941406e+00) (23, 9.01863336563110351562e-01) (24, 1.17501944303512573242e-01) (25, -1.47442966699600219727e-01) (26, 1.39339327812194824219e+00) (27, -2.23487329483032226562e+00) (28, 5.33880329132080078125e+00) (29, 1.43622422218322753906e+00) (30, -1.46421229839324951172e+00) (31, -2.30574274063110351562e+00) (32, 8.70645642280578613281e-02) (33, 8.36003720760345458984e-01) (34, -2.61121898889541625977e-01) (35, 6.23881042003631591797e-01) (36, -1.13388228416442871094e+00) (37, 4.71530944108963012695e-01) (38, -2.07353517413139343262e-01) (39, -1.39844036102294921875e+00) (40, 2.54262331873178482056e-02) (41, 1.33760243654251098633e-01) (42, 6.90984070301055908203e-01) (43, 9.25785660743713378906e-01) (44, -4.78201478719711303711e-01) (45, 6.59749865531921386719e-01) (46, 6.09464943408966064453e-02) (47, -7.62910008430480957031e-01) (48, 4.01554733514785766602e-01) (49, -8.91958773136138916016e-01) (50, -3.51478910446166992188e+00) (51, 8.96234214305877685547e-01) (52, 4.10413646697998046875e+00) (53, -9.31518733501434326172e-01) (54, 1.26161932945251464844e-01) (55, 2.88419634103775024414e-01) (56, 1.06788739562034606934e-01) (57, 4.64139044284820556641e-01) (58, -4.41015034914016723633e-01) (59, 3.57943147420883178711e-01) (60, -1.36190128326416015625e+00) (61, 1.35357987880706787109e+00) (62, 1.14141452312469482422e+00) (63, 3.40279936790466308594e+00) (64, 1.07172112911939620972e-02) (65, 5.95978617668151855469e-01) (66, -4.57913130521774291992e-01) (67, 3.72812438011169433594e+00) (68, -4.14355039596557617188e-01) (69, -7.19730138778686523438e-01) (70, 2.78241586685180664062e+00) (71, -5.76148569583892822266e-01) (72, 1.05432040989398956299e-01) (73, -9.39806699752807617188e-02) (74, 3.69480800628662109375e+00) (75, -9.93597567081451416016e-01) (76, 7.13956892490386962891e-01) (77, 3.55408370494842529297e-01) (78, -1.73179820179939270020e-01) (79, 5.70381927490234375000e+00) (80, 1.47769212722778320312e-01) (81, -3.73008728027343750000e-01) (82, -7.59572565555572509766e-01) (83, -5.38937151432037353516e-01) (84, -4.28586870431900024414e-01) (85, 1.38548815250396728516e+00) (86, -8.87232244014739990234e-01) (87, 1.99520242214202880859e+00) (88, 1.70943304896354675293e-01) (89, -6.71600341796875000000e-01) (90, 9.32242348790168762207e-02) (91, 5.49907190725207328796e-03) (92, -2.60018134117126464844e+00) (93, -8.13148021697998046875e-01) (94, -1.21578507125377655029e-01) (95, -8.31550825387239456177e-03) (96, -6.05000495910644531250e-01) (0, 1.06439387798309326172e+00) (1, 1.71992218494415283203e+00) (2, 2.42732667922973632812e+00) (3, 9.49709892272949218750e-01) (4, 2.47919082641601562500e+00) (5, 2.13030195236206054688e+00) (6, 1.18990576267242431641e+00) (7, 2.22984385490417480469e+00) (8, 1.34102606773376464844e+00) (9, 1.40385508537292480469e+00) (10, 1.25058519840240478516e+00) (11, 1.47178268432617187500e+01) (12, 1.38648784160614013672e+00) (13, 1.12818145751953125000e+00) (14, 1.56029486656188964844e+00) (15, 1.66843676567077636719e+00) (16, 1.11375153064727783203e+00) (17, 9.11437273025512695312e-01) (18, 1.09236490726470947266e+00) (19, 2.11063051223754882812e+00) (20, 2.54969811439514160156e+00) (21, 1.83929169178009033203e+00) (22, 1.29949104785919189453e+00) (23, 1.19640815258026123047e+00) (24, 1.41292190551757812500e+00) (25, 1.63847899436950683594e+00) (26, 6.96944961547851562500e+01) (27, 1.21933794021606445312e+00) (28, 2.47954082489013671875e+00) (29, 1.18422579765319824219e+00) (30, 1.13799381256103515625e+00) (31, 1.14272916316986083984e+00) (32, 1.05629754066467285156e+00) (33, 2.05975317955017089844e+00) (34, 1.23671996593475341797e+00) (35, 1.27762544155120849609e+00) (36, 1.49675679206848144531e+00) (37, 1.00411272048950195312e+00) (38, 1.56170880794525146484e+00) (39, 1.02575290203094482422e+00) (40, 9.70494806766510009766e-01) (41, 8.36928904056549072266e-01) (42, 1.23920512199401855469e+00) (43, 1.17479157447814941406e+00) (44, 2.54968023300170898438e+00) (45, 9.95960474014282226562e-01) (46, 1.24842476844787597656e+00) (47, 1.38720619678497314453e+00) (48, 1.04530084133148193359e+00) (49, 1.80557155609130859375e+00) (50, 1.30531520843505859375e+01) (51, 1.07337772846221923828e+00) (52, 2.55326128005981445312e+00) (53, 1.78144836425781250000e+00) (54, 1.48004150390625000000e+00) (55, 3.37390565872192382812e+00) (56, 1.24124944210052490234e+00) (57, 3.03800034523010253906e+00) (58, 1.29645955562591552734e+00) (59, 2.92846584320068359375e+00) (60, 1.70242989063262939453e+00) (61, 1.26292324066162109375e+00) (62, 1.39958894252777099609e+00) (63, 9.99927461147308349609e-01) (64, 1.06603968143463134766e+00) 